{"learner":{"attributes":{"scikit_learn":"{\"_estimator_type\": \"classifier\"}"},"feature_names":["purchases","time_spent","n_visits","customer_group_2","customer_group_3","customer_group_4","customer_group_5","customer_group_6","customer_group_7","customer_group_8","customer_group_9","onboarding_True"],"feature_types":["float","float","float","float","float","float","float","float","float","float","float","float"],"gradient_booster":{"model":{"gbtree_model_param":{"num_parallel_tree":"100","num_trees":"100"},"iteration_indptr":[0,100],"tree_info":[0,0,0,0,0,0,0,0,0,0,0,0,0,0,0,0,0,0,0,0,0,0,0,0,0,0,0,0,0,0,0,0,0,0,0,0,0,0,0,0,0,0,0,0,0,0,0,0,0,0,0,0,0,0,0,0,0,0,0,0,0,0,0,0,0,0,0,0,0,0,0,0,0,0,0,0,0,0,0,0,0,0,0,0,0,0,0,0,0,0,0,0,0,0,0,0,0,0,0,0],"trees":[{"base_weights":[-1.6082308E-1,-1.5815815E0,1.0718938E0,-4.488218E-3,-1.0439614E-3,1.5985948E-1,4.011342E-3,2.6542547E-1,-4.768772E-3,-1.3750575E-3,1.3872903E-3],"categories":[],"categories_nodes":[],"categories_segments":[],"categories_sizes":[],"default_left":[0,0,0,0,0,0,0,0,0,0,0],"id":0,"left_children":[1,3,5,-1,-1,7,-1,9,-1,-1,-1],"loss_changes":[2.7692255E2,1.622499E1,3.9409912E1,0E0,0E0,6.545058E0,0E0,6.575323E0,0E0,0E0,0E0],"parents":[2147483647,0,0,1,1,2,2,5,5,7,7],"right_children":[2,4,6,-1,-1,8,-1,10,-1,-1,-1],"split_conditions":[2.8123736E-1,2.3436446E-1,4.6872893E-1,-4.488218E-3,-1.0439614E-3,9.3747944E-1,4.011342E-3,3.4099448E-1,-4.768772E-3,-1.3750575E-3,1.3872903E-3],"split_indices":[2,2,2,0,0,1,0,1,0,0,0],"split_type":[0,0,0,0,0,0,0,0,0,0,0],"sum_hessian":[1.5811559E2,7.345527E1,8.466032E1,6.3246235E1,1.0209038E1,3.0378113E1,5.42822E1,2.8884108E1,1.4940056E0,7.4700274E0,2.141408E1],"tree_param":{"num_deleted":"0","num_feature":"12","num_nodes":"11","size_leaf_vector":"1"}},{"base_weights":[-1.9078434E-1,-1.5942228E0,1.029958E0,-4.7241487E-3,-1.6835806E-3,1.0870689E-3,3.8714856E-3],"categories":[],"categories_nodes":[],"categories_segments":[],"categories_sizes":[],"default_left":[0,0,0,0,0,0,0],"id":1,"left_children":[1,3,5,-1,-1,-1,-1],"loss_changes":[2.6960968E2,1.8333221E1,2.5154343E1,0E0,0E0,0E0,0E0],"parents":[2147483647,0,0,1,1,2,2],"right_children":[2,4,6,-1,-1,-1,-1],"split_conditions":[2.8123736E-1,1.8749157E-1,5.624747E-1,-4.7241487E-3,-1.6835806E-3,1.0870689E-3,3.8714856E-3],"split_indices":[2,2,2,0,0,0,0],"split_type":[0,0,0,0,0,0,0],"sum_hessian":[1.5736858E2,7.320627E1,8.4162315E1,5.677221E1,1.6434061E1,3.809714E1,4.606517E1],"tree_param":{"num_deleted":"0","num_feature":"12","num_nodes":"7","size_leaf_vector":"1"}},{"base_weights":[1.3969044E-1,-4.068071E-3,1.2646469E0,7.349018E-5,1.6012714E0,2.7772856E-3,4.5639933E-3],"categories":[],"categories_nodes":[],"categories_segments":[],"categories_sizes":[],"default_left":[0,0,0,0,0,0,0],"id":2,"left_children":[1,-1,3,-1,5,-1,-1],"loss_changes":[3.078327E2,0E0,3.966832E1,0E0,7.5441284E0,0E0,0E0],"parents":[2147483647,0,0,2,2,4,4],"right_children":[2,-1,4,-1,6,-1,-1],"split_conditions":[2.8123736E-1,-4.068071E-3,4.2185605E-1,7.349018E-5,5.624747E-1,2.7772856E-3,4.5639933E-3],"split_indices":[2,0,2,0,2,0,0],"split_type":[0,0,0,0,0,0,0],"sum_hessian":[1.5687057E2,6.1503227E1,9.5367355E1,2.0418076E1,7.494928E1,2.116508E1,5.37842E1],"tree_param":{"num_deleted":"0","num_feature":"12","num_nodes":"7","size_leaf_vector":"1"}},{"base_weights":[3.3544585E-2,-4.2005484E-3,9.7269815E-1,4.8341975E-4,1.3502203E0,2.6220172E-3,4.2811804E-3],"categories":[],"categories_nodes":[],"categories_segments":[],"categories_sizes":[],"default_left":[0,0,0,0,0,0,0],"id":3,"left_children":[1,-1,3,-1,5,-1,-1],"loss_changes":[2.379815E2,0E0,2.844899E1,0E0,6.9508743E0,0E0,0E0],"parents":[2147483647,0,0,2,2,4,4],"right_children":[2,-1,4,-1,6,-1,-1],"split_conditions":[2.3436446E-1,-4.2005484E-3,4.2185605E-1,4.8341975E-4,6.562205E-1,2.6220172E-3,4.2811804E-3],"split_indices":[2,0,2,0,2,0,0],"split_type":[0,0,0,0,0,0,0],"sum_hessian":[1.4989856E2,5.35352E1,9.636336E1,3.1374117E1,6.498924E1,3.3615124E1,3.1374117E1],"tree_param":{"num_deleted":"0","num_feature":"12","num_nodes":"7","size_leaf_vector":"1"}},{"base_weights":[-1.2596643E-1,-1.5931946E0,9.51288E-1,-4.7196182E-3,-8.2129234E-1,9.0511265E-4,3.950231E-3,-2.6679127E-3,2.0186764E-3],"categories":[],"categories_nodes":[],"categories_segments":[],"categories_sizes":[],"default_left":[0,0,0,0,0,0,0,0,0],"id":4,"left_children":[1,3,5,-1,7,-1,-1,-1,-1],"loss_changes":[2.5935962E2,1.4397629E1,3.4125725E1,0E0,6.701374E0,0E0,0E0,0E0,0E0],"parents":[2147483647,0,0,1,1,2,2,4,4],"right_children":[2,4,6,-1,8,-1,-1,-1,-1],"split_conditions":[2.8123736E-1,1.8749157E-1,5.624747E-1,-4.7196182E-3,7.565547E-1,9.0511265E-4,3.950231E-3,-2.6679127E-3,2.0186764E-3],"split_indices":[2,2,2,0,1,0,0,0,0],"split_type":[0,0,0,0,0,0,0,0,0],"sum_hessian":[1.6409161E2,6.947126E1,9.462035E1,5.154319E1,1.7928066E1,4.7808178E1,4.6812172E1,1.5687058E1,2.2410083E0],"tree_param":{"num_deleted":"0","num_feature":"12","num_nodes":"9","size_leaf_vector":"1"}},{"base_weights":[-1.5991959E-1,-1.357832E-3,2.2821281E-2,-1.1259289E0,4.0430236E-3,-4.5490637E-3,-3.7479762E-4],"categories":[],"categories_nodes":[],"categories_segments":[],"categories_sizes":[],"default_left":[0,0,0,0,0,0,0],"id":5,"left_children":[1,-1,3,5,-1,-1,-1],"loss_changes":[1.0290998E1,0E0,1.8210712E2,3.8096153E1,0E0,0E0,0E0],"parents":[2147483647,0,0,2,2,3,3],"right_children":[2,-1,4,6,-1,-1,-1],"split_conditions":[4.000873E-1,-1.357832E-3,4.2185605E-1,1.8749157E-1,4.0430236E-3,-4.5490637E-3,-3.7479762E-4],"split_indices":[1,0,2,2,0,0,0],"split_type":[0,0,0,0,0,0,0],"sum_hessian":[1.4989856E2,4.905318E1,1.00845375E2,5.8266216E1,4.257916E1,3.461113E1,2.3655088E1],"tree_param":{"num_deleted":"0","num_feature":"12","num_nodes":"7","size_leaf_vector":"1"}},{"base_weights":[1.0501257E-1,-1.2281675E0,3.7640394E-3,-4.613759E-3,-8.2258903E-4],"categories":[],"categories_nodes":[],"categories_segments":[],"categories_sizes":[],"default_left":[0,0,0,0,0],"id":6,"left_children":[1,3,-1,-1,-1],"loss_changes":[2.935916E2,4.3409317E1,0E0,0E0,0E0],"parents":[2147483647,0,0,1,1],"right_children":[2,4,-1,-1,-1],"split_conditions":[3.7498313E-1,1.8749157E-1,3.7640394E-3,-4.613759E-3,-8.2258903E-4],"split_indices":[2,2,0,0,0],"split_type":[0,0,0,0,0],"sum_hessian":[1.5960959E2,8.11743E1,7.843529E1,4.905318E1,3.212112E1],"tree_param":{"num_deleted":"0","num_feature":"12","num_nodes":"5","size_leaf_vector":"1"}},{"base_weights":[5.7915233E-2,-1.6468139E0,1.0807527E0,-4.7688033E-3,-2.8426233E-3,4.8602629E-4,3.7524456E-3],"categories":[],"categories_nodes":[],"categories_segments":[],"categories_sizes":[],"default_left":[0,0,0,0,0,0,0],"id":7,"left_children":[1,3,5,-1,-1,-1,-1],"loss_changes":[2.7787088E2,7.3573E0,3.5368195E1,0E0,0E0,0E0,0E0],"parents":[2147483647,0,0,1,1,2,2],"right_children":[2,4,6,-1,-1,-1,-1],"split_conditions":[2.3436446E-1,1.4061868E-1,4.2185605E-1,-4.7688033E-3,-2.8426233E-3,4.8602629E-4,3.7524456E-3],"split_indices":[2,2,2,0,0,0,0],"split_type":[0,0,0,0,0,0,0],"sum_hessian":[1.593606E2,5.976022E1,9.960037E1,4.1334152E1,1.8426067E1,3.0876114E1,6.872425E1],"tree_param":{"num_deleted":"0","num_feature":"12","num_nodes":"7","size_leaf_vector":"1"}},{"base_weights":[5.5997044E-2,-4.4629294E-3,1.0685028E0,3.2181287E-4,3.8104872E-3],"categories":[],"categories_nodes":[],"categories_segments":[],"categories_sizes":[],"default_left":[0,0,0,0,0],"id":8,"left_children":[1,-1,3,-1,-1],"loss_changes":[2.981243E2,0E0,4.2587547E1,0E0,0E0],"parents":[2147483647,0,0,2,2],"right_children":[2,-1,4,-1,-1],"split_conditions":[2.3436446E-1,-4.4629294E-3,4.2185605E-1,3.2181287E-4,3.8104872E-3],"split_indices":[2,0,2,0,0],"split_type":[0,0,0,0,0],"sum_hessian":[1.620996E2,5.8017216E1,1.0408238E2,3.2868122E1,7.1214264E1],"tree_param":{"num_deleted":"0","num_feature":"12","num_nodes":"5","size_leaf_vector":"1"}},{"base_weights":[-5.3845704E-2,-1.5952971E0,1.1054995E0,-4.768803E-3,-2.9940924E-3,1.0490436E-3,3.407035E-3],"categories":[],"categories_nodes":[],"categories_segments":[],"categories_sizes":[],"default_left":[0,0,0,0,0,0,0],"id":9,"left_children":[1,3,5,-1,-1,-1,-1],"loss_changes":[2.7677957E2,7.8708954E0,1.4578056E1,0E0,0E0,0E0,0E0],"parents":[2147483647,0,0,1,1,2,2],"right_children":[2,4,6,-1,-1,-1,-1],"split_conditions":[2.8123736E-1,1.4061868E-1,4.2185605E-1,-4.768803E-3,-2.9940924E-3,1.0490436E-3,3.407035E-3],"split_indices":[2,2,2,0,0,0,0],"split_type":[0,0,0,0,0,0,0],"sum_hessian":[1.5487857E2,6.6483246E1,8.8395325E1,3.9342144E1,2.71411E1,2.2659084E1,6.5736244E1],"tree_param":{"num_deleted":"0","num_feature":"12","num_nodes":"7","size_leaf_vector":"1"}},{"base_weights":[4.0746063E-2,-1.4999985E0,3.118067E-3,-4.7688033E-3,-2.340252E-3],"categories":[],"categories_nodes":[],"categories_segments":[],"categories_sizes":[],"default_left":[0,0,0,0,0],"id":10,"left_children":[1,3,-1,-1,-1],"loss_changes":[2.869691E2,1.4998642E1,0E0,0E0,0E0],"parents":[2147483647,0,0,1,1],"right_children":[2,4,-1,-1,-1],"split_conditions":[2.8123736E-1,1.4061868E-1,3.118067E-3,-4.7688033E-3,-2.340252E-3],"split_indices":[2,2,0,0,0],"split_type":[0,0,0,0,0],"sum_hessian":[1.5662158E2,6.822625E1,8.8395325E1,4.108515E1,2.71411E1],"tree_param":{"num_deleted":"0","num_feature":"12","num_nodes":"5","size_leaf_vector":"1"}},{"base_weights":[-5.8463387E-2],"categories":[],"categories_nodes":[],"categories_segments":[],"categories_sizes":[],"default_left":[0],"id":11,"left_children":[-1],"loss_changes":[0E0],"parents":[2147483647],"right_children":[-1],"split_conditions":[-1.4821268E-4],"split_indices":[0],"split_type":[0],"sum_hessian":[1.5911159E2],"tree_param":{"num_deleted":"0","num_feature":"12","num_nodes":"1","size_leaf_vector":"1"}},{"base_weights":[-1.8123718E-1,-2.760905E-1,7.723771E-1,-4.3410202E-3,7.7568746E-1,-2.9721088E-3,4.1071395E-3,-2.3352697E-4,3.0920554E-3],"categories":[],"categories_nodes":[],"categories_segments":[],"categories_sizes":[],"default_left":[0,0,0,0,0,0,0,0,0],"id":12,"left_children":[1,3,5,-1,7,-1,-1,-1,-1],"loss_changes":[1.3941741E1,2.1176974E2,2.298787E1,0E0,3.1180382E1,0E0,0E0,0E0,0E0],"parents":[2147483647,0,0,1,1,2,2,4,4],"right_children":[2,4,6,-1,8,-1,-1,-1,-1],"split_conditions":[8.164651E-1,2.3436446E-1,2.8123736E-1,-4.3410202E-3,4.2185605E-1,-2.9721088E-3,4.1071395E-3,-2.3352697E-4,3.0920554E-3],"split_indices":[1,2,2,0,2,0,0,0,0],"split_type":[0,0,0,0,0,0,0,0,0],"sum_hessian":[1.5413158E2,1.4018752E2,1.3944052E1,5.926222E1,8.09253E1,4.2330155E0,9.711036E0,2.73901E1,5.35352E1],"tree_param":{"num_deleted":"0","num_feature":"12","num_nodes":"9","size_leaf_vector":"1"}},{"base_weights":[1.2694108E-1,1.8329278E-4,8.253838E-1,-3.071925E-3,5.4124226E-3],"categories":[],"categories_nodes":[],"categories_segments":[],"categories_sizes":[],"default_left":[0,0,0,0,0],"id":13,"left_children":[1,-1,3,-1,-1],"loss_changes":[6.024662E0,0E0,3.0556847E1,0E0,0E0],"parents":[2147483647,0,0,2,2],"right_children":[2,-1,4,-1,-1],"split_conditions":[9.4451874E-1,1.8329278E-4,2.8123736E-1,-3.071925E-3,5.4124226E-3],"split_indices":[0,0,2,0,0],"split_type":[0,0,0,0,0],"sum_hessian":[1.5786658E2,1.4641254E2,1.1454042E1,4.4820166E0,6.972026E0],"tree_param":{"num_deleted":"0","num_feature":"12","num_nodes":"5","size_leaf_vector":"1"}},{"base_weights":[3.609441E-2,-1.6469638E0,9.33994E-1,-4.768803E-3,-3.0272757E-3,2.9305238E-4,3.8915812E-3],"categories":[],"categories_nodes":[],"categories_segments":[],"categories_sizes":[],"default_left":[0,0,0,0,0,0,0],"id":14,"left_children":[1,3,5,-1,-1,-1,-1],"loss_changes":[2.412048E2,5.886856E0,5.1199097E1,0E0,0E0,0E0,0E0],"parents":[2147483647,0,0,1,1,2,2],"right_children":[2,4,6,-1,-1,-1,-1],"split_conditions":[2.3436446E-1,1.4061868E-1,4.6872893E-1,-4.768803E-3,-3.0272757E-3,2.9305238E-4,3.8915812E-3],"split_indices":[2,2,2,0,0,0,0],"split_type":[0,0,0,0,0,0,0],"sum_hessian":[1.5960959E2,5.5527206E1,1.0408238E2,3.6603134E1,1.892407E1,4.4073162E1,6.0009224E1],"tree_param":{"num_deleted":"0","num_feature":"12","num_nodes":"7","size_leaf_vector":"1"}},{"base_weights":[8.821982E-3,-4.2776032E-3,9.7321576E-1,-3.6681155E-5,3.840038E-3],"categories":[],"categories_nodes":[],"categories_segments":[],"categories_sizes":[],"default_left":[0,0,0,0,0],"id":15,"left_children":[1,-1,3,-1,-1],"loss_changes":[2.5619458E2,0E0,5.3403618E1,0E0,0E0],"parents":[2147483647,0,0,2,2],"right_children":[2,-1,4,-1,-1],"split_conditions":[2.3436446E-1,-4.2776032E-3,4.2185605E-1,-3.6681155E-5,3.840038E-3],"split_indices":[2,0,2,0,0],"split_type":[0,0,0,0,0],"sum_hessian":[1.5662158E2,5.677221E1,9.984937E1,3.535813E1,6.449124E1],"tree_param":{"num_deleted":"0","num_feature":"12","num_nodes":"5","size_leaf_vector":"1"}},{"base_weights":[-7.808246E-2,-1.5147547E0,1.0712553E0,-4.2878003E-3,-1.132648E-3,1.1255944E-3,3.60816E-3],"categories":[],"categories_nodes":[],"categories_segments":[],"categories_sizes":[],"default_left":[0,0,0,0,0,0,0],"id":16,"left_children":[1,3,5,-1,-1,-1,-1],"loss_changes":[2.738297E2,1.3900482E1,2.0342194E1,0E0,0E0,0E0,0E0],"parents":[2147483647,0,0,1,1,2,2],"right_children":[2,4,6,-1,-1,-1,-1],"split_conditions":[2.8123736E-1,2.3436446E-1,4.6872893E-1,-4.2878003E-3,-1.132648E-3,1.1255944E-3,3.60816E-3],"split_indices":[2,2,2,0,0,0,0],"split_type":[0,0,0,0,0,0,0],"sum_hessian":[1.6583461E2,7.370427E1,9.213034E1,6.3246235E1,1.0458038E1,3.3117123E1,5.9013218E1],"tree_param":{"num_deleted":"0","num_feature":"12","num_nodes":"7","size_leaf_vector":"1"}},{"base_weights":[2.7163457E-2,-1.7130479E0,1.054103E0,-4.6699564E-3,-2.3006233E-3,1.6517859E-4,3.8574776E-3],"categories":[],"categories_nodes":[],"categories_segments":[],"categories_sizes":[],"default_left":[0,0,0,0,0,0,0],"id":17,"left_children":[1,3,5,-1,-1,-1,-1],"loss_changes":[2.86572E2,6.18631E0,4.662436E1,0E0,0E0,0E0,0E0],"parents":[2147483647,0,0,1,1,2,2],"right_children":[2,4,6,-1,-1,-1,-1],"split_conditions":[2.3436446E-1,1.8749157E-1,4.2185605E-1,-4.6699564E-3,-2.3006233E-3,1.6517859E-4,3.8574776E-3],"split_indices":[2,2,2,0,0,0,0],"split_type":[0,0,0,0,0,0,0],"sum_hessian":[1.603566E2,5.951122E1,1.00845375E2,5.129419E1,8.217031E0,3.237012E1,6.847525E1],"tree_param":{"num_deleted":"0","num_feature":"12","num_nodes":"7","size_leaf_vector":"1"}},{"base_weights":[6.7789964E-2,-4.215013E-3,2.754275E-3],"categories":[],"categories_nodes":[],"categories_segments":[],"categories_sizes":[],"default_left":[0,0,0],"id":18,"left_children":[1,-1,-1],"loss_changes":[2.8309958E2,0E0,0E0],"parents":[2147483647,0,0],"right_children":[2,-1,-1],"split_conditions":[2.3436446E-1,-4.215013E-3,2.754275E-3],"split_indices":[2,0,0],"split_type":[0,0,0],"sum_hessian":[1.6060559E2,5.951122E1,1.01094376E2],"tree_param":{"num_deleted":"0","num_feature":"12","num_nodes":"3","size_leaf_vector":"1"}},{"base_weights":[1.9313417E-2,-2.5526058E-2,8.3565474E-1,-1.5779854E0,2.8815016E-3,-2.5062964E-3,3.7834265E-3,-4.6621934E-3,-2.2922864E-3],"categories":[],"categories_nodes":[],"categories_segments":[],"categories_sizes":[],"default_left":[0,0,0,0,0,0,0,0,0],"id":19,"left_children":[1,3,5,7,-1,-1,-1,-1,-1],"loss_changes":[5.951774E0,2.780832E2,1.0142994E1,1.1605911E1,0E0,0E0,0E0,0E0,0E0],"parents":[2147483647,0,0,1,1,2,2,3,3],"right_children":[2,4,6,8,-1,-1,-1,-1,-1],"split_conditions":[9.4451874E-1,2.8123736E-1,2.8123736E-1,1.8749157E-1,2.8815016E-3,-2.5062964E-3,3.7834265E-3,-4.6621934E-3,-2.2922864E-3],"split_indices":[0,2,2,2,0,0,0,0,0],"split_type":[0,0,0,0,0,0,0,0,0],"sum_hessian":[1.625976E2,1.5413158E2,8.466031E0,6.5985245E1,8.8146324E1,2.2410083E0,6.2250233E0,4.7559177E1,1.8426067E1],"tree_param":{"num_deleted":"0","num_feature":"12","num_nodes":"9","size_leaf_vector":"1"}},{"base_weights":[-1.216715E-1,-3.9515807E-3,1.1764524E0,4.7175324E-1,3.7448136E-3,2.0671664E-3,-9.069554E-4],"categories":[],"categories_nodes":[],"categories_segments":[],"categories_sizes":[],"default_left":[0,0,0,0,0,0,0],"id":20,"left_children":[1,-1,3,5,-1,-1,-1],"loss_changes":[2.9263797E2,0E0,1.7465576E1,7.0271125E0,0E0,0E0,0E0],"parents":[2147483647,0,0,2,2,3,3],"right_children":[2,-1,4,6,-1,-1,-1],"split_conditions":[2.8123736E-1,-3.9515807E-3,4.6872893E-1,5.843557E-1,3.7448136E-3,2.0671664E-3,-9.069554E-4],"split_indices":[2,0,2,1,0,0,0],"split_type":[0,0,0,0,0,0,0],"sum_hessian":[1.5687057E2,7.445128E1,8.2419304E1,2.465109E1,5.7768215E1,1.7430065E1,7.221027E0],"tree_param":{"num_deleted":"0","num_feature":"12","num_nodes":"7","size_leaf_vector":"1"}},{"base_weights":[6.9647636E-3,-1.6714101E0,1.0868495E0,-4.61981E-3,-2.454885E-3,4.039196E-4,3.8639528E-3],"categories":[],"categories_nodes":[],"categories_segments":[],"categories_sizes":[],"default_left":[0,0,0,0,0,0,0],"id":21,"left_children":[1,3,5,-1,-1,-1,-1],"loss_changes":[2.8702814E2,6.5779266E0,3.9086365E1,0E0,0E0,0E0,0E0],"parents":[2147483647,0,0,1,1,2,2],"right_children":[2,4,6,-1,-1,-1,-1],"split_conditions":[2.3436446E-1,1.8749157E-1,4.2185605E-1,-4.61981E-3,-2.454885E-3,4.039196E-4,3.8639528E-3],"split_indices":[2,2,2,0,0,0,0],"split_type":[0,0,0,0,0,0,0],"sum_hessian":[1.583646E2,6.200123E1,9.636336E1,5.104519E1,1.095604E1,3.0876114E1,6.548724E1],"tree_param":{"num_deleted":"0","num_feature":"12","num_nodes":"7","size_leaf_vector":"1"}},{"base_weights":[-9.550476E-2,-1.6309489E0,1.075322E0,-4.7688033E-3,-3.0399142E-3,3.982957E-1,4.3628174E-3,2.2449342E-3,-1.6045592E-4],"categories":[],"categories_nodes":[],"categories_segments":[],"categories_sizes":[],"default_left":[0,0,0,0,0,0,0,0,0],"id":22,"left_children":[1,3,5,-1,-1,7,-1,-1,-1],"loss_changes":[2.990227E2,7.773041E0,4.1249725E1,0E0,0E0,1.0360095E1,0E0,0E0,0E0],"parents":[2147483647,0,0,1,1,2,2,5,5],"right_children":[2,4,6,-1,-1,8,-1,-1,-1],"split_conditions":[2.8123736E-1,1.4061868E-1,5.624747E-1,-4.7688033E-3,-3.0399142E-3,4.972696E-1,4.3628174E-3,2.2449342E-3,-1.6045592E-4],"split_indices":[2,2,2,0,0,1,0,0,0],"split_type":[0,0,0,0,0,0,0,0,0],"sum_hessian":[1.6633261E2,7.1961266E1,9.437135E1,4.556717E1,2.6394098E1,4.606517E1,4.830618E1,2.2410084E1,2.3655088E1],"tree_param":{"num_deleted":"0","num_feature":"12","num_nodes":"9","size_leaf_vector":"1"}},{"base_weights":[4.365895E-2,-1.6922947E0,1.0177913E0,-4.61981E-3,-1.9601851E-3,3.732082E-1,4.2701443E-3,1.148773E-4,2.0949484E-3],"categories":[],"categories_nodes":[],"categories_segments":[],"categories_sizes":[],"default_left":[0,0,0,0,0,0,0,0,0],"id":23,"left_children":[1,3,5,-1,-1,7,-1,-1,-1],"loss_changes":[2.7411832E2,6.962631E0,4.4614555E1,0E0,0E0,7.8436656E0,0E0,0E0,0E0],"parents":[2147483647,0,0,1,1,2,2,5,5],"right_children":[2,4,6,-1,-1,8,-1,-1,-1],"split_conditions":[2.3436446E-1,1.8749157E-1,5.624747E-1,-4.61981E-3,-1.9601851E-3,4.2185605E-1,4.2701443E-3,1.148773E-4,2.0949484E-3],"split_indices":[2,2,2,0,0,2,0,0,0],"split_type":[0,0,0,0,0,0,0,0,0],"sum_hessian":[1.620996E2,5.8266216E1,1.0383338E2,5.104519E1,7.221027E0,5.2788197E1,5.104519E1,3.0627113E1,2.2161081E1],"tree_param":{"num_deleted":"0","num_feature":"12","num_nodes":"9","size_leaf_vector":"1"}},{"base_weights":[-1.8567953E-2,-1.3807676E0,1.230115E0,-4.606337E-3,-1.5930057E-3,1.8145498E-3,4.0265024E-3],"categories":[],"categories_nodes":[],"categories_segments":[],"categories_sizes":[],"default_left":[0,0,0,0,0,0,0],"id":24,"left_children":[1,3,5,-1,-1,-1,-1],"loss_changes":[2.6301804E2,2.4272781E1,1.48624115E1,0E0,0E0,0E0,0E0],"parents":[2147483647,0,0,1,1,2,2],"right_children":[2,4,6,-1,-1,-1,-1],"split_conditions":[3.2811025E-1,1.8749157E-1,5.624747E-1,-4.606337E-3,-1.5930057E-3,1.8145498E-3,4.0265024E-3],"split_indices":[2,2,2,0,0,0,0],"split_type":[0,0,0,0,0,0,0],"sum_hessian":[1.5462958E2,7.395328E1,8.06763E1,4.6812172E1,2.71411E1,3.3117123E1,4.7559177E1],"tree_param":{"num_deleted":"0","num_feature":"12","num_nodes":"7","size_leaf_vector":"1"}},{"base_weights":[-1.4702697E-1,-3.5614136E-3,2.8261999E-3],"categories":[],"categories_nodes":[],"categories_segments":[],"categories_sizes":[],"default_left":[0,0,0],"id":25,"left_children":[1,-1,-1],"loss_changes":[2.4620818E2,0E0,0E0],"parents":[2147483647,0,0],"right_children":[2,-1,-1],"split_conditions":[3.2811025E-1,-3.5614136E-3,2.8261999E-3],"split_indices":[2,0,0],"split_type":[0,0,0],"sum_hessian":[1.5512758E2,7.7688286E1,7.7439285E1],"tree_param":{"num_deleted":"0","num_feature":"12","num_nodes":"3","size_leaf_vector":"1"}},{"base_weights":[1.3331576E-1,-3.9995546E-3,2.747712E-3],"categories":[],"categories_nodes":[],"categories_segments":[],"categories_sizes":[],"default_left":[0,0,0],"id":26,"left_children":[1,-1,-1],"loss_changes":[2.551238E2,0E0,0E0],"parents":[2147483647,0,0],"right_children":[2,-1,-1],"split_conditions":[2.3436446E-1,-3.9995546E-3,2.747712E-3],"split_indices":[2,0,0],"split_type":[0,0,0],"sum_hessian":[1.5687057E2,5.6025208E1,1.00845375E2],"tree_param":{"num_deleted":"0","num_feature":"12","num_nodes":"3","size_leaf_vector":"1"}},{"base_weights":[6.97505E-2,-1.4964044E0,2.9700312E-3,-4.561023E-3,-1.4794813E-3],"categories":[],"categories_nodes":[],"categories_segments":[],"categories_sizes":[],"default_left":[0,0,0,0,0],"id":27,"left_children":[1,3,-1,-1,-1],"loss_changes":[2.715527E2,1.795819E1,0E0,0E0,0E0],"parents":[2147483647,0,0,1,1],"right_children":[2,4,-1,-1,-1],"split_conditions":[2.8123736E-1,1.8749157E-1,2.9700312E-3,-4.561023E-3,-1.4794813E-3],"split_indices":[2,2,0,0,0],"split_type":[0,0,0,0,0],"sum_hessian":[1.5736858E2,6.498924E1,9.237934E1,4.880418E1,1.618506E1],"tree_param":{"num_deleted":"0","num_feature":"12","num_nodes":"5","size_leaf_vector":"1"}},{"base_weights":[8.7686464E-2,-1.0800387E0,1.5612442E0,-1.6540893E0,-3.6415659E-4,2.7850135E-3,4.500677E-3,-4.7688033E-3,-2.7325556E-3],"categories":[],"categories_nodes":[],"categories_segments":[],"categories_sizes":[],"default_left":[0,0,0,0,0,0,0,0,0],"id":28,"left_children":[1,3,5,7,-1,-1,-1,-1,-1],"loss_changes":[2.8492496E2,4.965741E1,7.2509155E0,7.4907837E0,0E0,0E0,0E0,0E0,0E0],"parents":[2147483647,0,0,1,1,2,2,3,3],"right_children":[2,4,6,8,-1,-1,-1,-1,-1],"split_conditions":[4.2185605E-1,2.3436446E-1,5.624747E-1,1.4061868E-1,-3.6415659E-4,2.7850135E-3,4.500677E-3,-4.7688033E-3,-2.7325556E-3],"split_indices":[2,2,2,2,0,0,0,0,0],"split_type":[0,0,0,0,0,0,0,0,0],"sum_hessian":[1.6558562E2,9.237934E1,7.320627E1,5.727021E1,3.510913E1,2.3157085E1,5.0049187E1,4.108515E1,1.618506E1],"tree_param":{"num_deleted":"0","num_feature":"12","num_nodes":"9","size_leaf_vector":"1"}},{"base_weights":[-6.490841E-2,-1.4838222E-1,4.9879727E-1,-1.5354398E0,9.685883E-1,-3.0719284E-3,4.733677E-3,-4.6045897E-3,-1.6091096E-3,3.6995035E-1,4.0874737E-3,1.9487104E-3,-6.9630996E-4],"categories":[],"categories_nodes":[],"categories_segments":[],"categories_sizes":[],"default_left":[0,0,0,0,0,0,0,0,0,0,0,0,0],"id":29,"left_children":[1,3,5,7,9,-1,-1,-1,-1,11,-1,-1,-1],"loss_changes":[7.358061E0,2.1102046E2,4.7210846E1,1.5370285E1,2.9074928E1,0E0,0E0,0E0,0E0,1.0048004E1,0E0,0E0,0E0],"parents":[2147483647,0,0,1,1,2,2,3,3,4,4,9,9],"right_children":[2,4,6,8,10,-1,-1,-1,-1,12,-1,-1,-1],"split_conditions":[7.835166E-1,2.8123736E-1,3.2811025E-1,1.8749157E-1,5.624747E-1,-3.0719284E-3,4.733677E-3,-4.6045897E-3,-1.6091096E-3,4.936091E-1,4.0874737E-3,1.9487104E-3,-6.9630996E-4],"split_indices":[1,2,2,2,2,0,0,0,0,1,0,0,0],"split_type":[0,0,0,0,0,0,0,0,0,0,0,0,0],"sum_hessian":[1.5637257E2,1.362035E2,2.0169075E1,6.0756226E1,7.544728E1,8.964033E0,1.1205042E1,4.631417E1,1.4442054E1,3.9093143E1,3.6354134E1,2.415309E1,1.4940055E1],"tree_param":{"num_deleted":"0","num_feature":"12","num_nodes":"13","size_leaf_vector":"1"}},{"base_weights":[9.4789304E-2,-1.4097037E-4,1.3998258E-3],"categories":[],"categories_nodes":[],"categories_segments":[],"categories_sizes":[],"default_left":[0,0,0],"id":30,"left_children":[1,-1,-1],"loss_changes":[1.1767153E1,0E0,0E0],"parents":[2147483647,0,0],"right_children":[2,-1,-1],"split_conditions":[7.2021645E-1,-1.4097037E-4,1.3998258E-3],"split_indices":[0,0,0],"split_type":[0,0,0],"sum_hessian":[1.7106363E2,1.2873347E2,4.233016E1],"tree_param":{"num_deleted":"0","num_feature":"12","num_nodes":"3","size_leaf_vector":"1"}},{"base_weights":[8.009758E-2,-2.8267188E-3,1.472385E0,5.285452E-1,3.95262E-3,3.6157332E-3,-3.4961323E-3],"categories":[],"categories_nodes":[],"categories_segments":[],"categories_sizes":[],"default_left":[0,0,0,0,0,0,0],"id":31,"left_children":[1,-1,3,5,-1,-1,-1],"loss_changes":[2.6640982E2,0E0,6.05513E0,1.0660213E1,0E0,0E0,0E0],"parents":[2147483647,0,0,2,2,3,3],"right_children":[2,-1,4,6,-1,-1,-1],"split_conditions":[3.7498313E-1,-2.8267188E-3,4.2185605E-1,5.0604844E-1,3.95262E-3,3.6157332E-3,-3.4961323E-3],"split_indices":[2,0,2,1,0,0,0],"split_type":[0,0,0,0,0,0,0],"sum_hessian":[1.6010759E2,8.615432E1,7.395328E1,6.2250233E0,6.772825E1,4.2330155E0,1.9920074E0],"tree_param":{"num_deleted":"0","num_feature":"12","num_nodes":"7","size_leaf_vector":"1"}},{"base_weights":[-6.956286E-2,-1.506828E0,9.997624E-1,-4.7688033E-3,-2.4262185E-3,3.2181287E-4,3.736506E-3],"categories":[],"categories_nodes":[],"categories_segments":[],"categories_sizes":[],"default_left":[0,0,0,0,0,0,0],"id":32,"left_children":[1,3,5,-1,-1,-1,-1],"loss_changes":[2.5027959E2,1.4294556E1,3.8641197E1,0E0,0E0,0E0,0E0],"parents":[2147483647,0,0,1,1,2,2],"right_children":[2,4,6,-1,-1,-1,-1],"split_conditions":[2.8123736E-1,1.4061868E-1,4.6872893E-1,-4.7688033E-3,-2.4262185E-3,3.2181287E-4,3.736506E-3],"split_indices":[2,2,2,0,0,0,0],"split_type":[0,0,0,0,0,0,0],"sum_hessian":[1.628466E2,6.947126E1,9.337534E1,4.1334152E1,2.8137104E1,3.2868122E1,6.0507225E1],"tree_param":{"num_deleted":"0","num_feature":"12","num_nodes":"7","size_leaf_vector":"1"}},{"base_weights":[5.1677786E-2,-1.4300054E0,1.0975718E0,-4.469355E-3,-1.2336527E-3,3.712363E-4,1.4377348E0,2.800139E-3,4.5889467E-3],"categories":[],"categories_nodes":[],"categories_segments":[],"categories_sizes":[],"default_left":[0,0,0,0,0,0,0,0,0],"id":33,"left_children":[1,3,5,-1,-1,-1,7,-1,-1],"loss_changes":[2.5737714E2,2.1586807E1,3.1499756E1,0E0,0E0,0E0,8.898453E0,0E0,0E0],"parents":[2147483647,0,0,1,1,2,2,6,6],"right_children":[2,4,6,-1,-1,-1,8,-1,-1],"split_conditions":[2.8123736E-1,1.8749157E-1,4.2185605E-1,-4.469355E-3,-1.2336527E-3,3.712363E-4,6.562205E-1,2.800139E-3,4.5889467E-3],"split_indices":[2,2,2,0,0,0,2,0,0],"split_type":[0,0,0,0,0,0,0,0,0],"sum_hessian":[1.6608362E2,6.872425E1,9.735936E1,5.079619E1,1.7928066E1,2.5647095E1,7.1712265E1,3.784814E1,3.3864124E1],"tree_param":{"num_deleted":"0","num_feature":"12","num_nodes":"9","size_leaf_vector":"1"}},{"base_weights":[-1.7281685E-2,-1.1185426E0,1.3049008E0,-4.49239E-3,-7.31418E-4,2.161279E-3,3.9579673E-3],"categories":[],"categories_nodes":[],"categories_segments":[],"categories_sizes":[],"default_left":[0,0,0,0,0,0,0],"id":34,"left_children":[1,3,5,-1,-1,-1,-1],"loss_changes":[2.6249506E2,5.3351044E1,9.499771E0,0E0,0E0,0E0,0E0],"parents":[2147483647,0,0,1,1,2,2],"right_children":[2,4,6,-1,-1,-1,-1],"split_conditions":[3.7498313E-1,1.8749157E-1,5.624747E-1,-4.49239E-3,-7.31418E-4,2.161279E-3,3.9579673E-3],"split_indices":[2,2,2,0,0,0,0],"split_type":[0,0,0,0,0,0,0],"sum_hessian":[1.8027667E2,9.835536E1,8.19213E1,5.5029205E1,4.332616E1,2.963111E1,5.2290195E1],"tree_param":{"num_deleted":"0","num_feature":"12","num_nodes":"7","size_leaf_vector":"1"}},{"base_weights":[1.4691254E-2,-4.1244216E-3,2.4606225E-3],"categories":[],"categories_nodes":[],"categories_segments":[],"categories_sizes":[],"default_left":[0,0,0],"id":35,"left_children":[1,-1,-1],"loss_changes":[2.5163585E2,0E0,0E0],"parents":[2147483647,0,0],"right_children":[2,-1,-1],"split_conditions":[2.3436446E-1,-4.1244216E-3,2.4606225E-3],"split_indices":[2,0,0],"split_type":[0,0,0],"sum_hessian":[1.603566E2,5.9013218E1,1.01343376E2],"tree_param":{"num_deleted":"0","num_feature":"12","num_nodes":"3","size_leaf_vector":"1"}},{"base_weights":[4.5365077E-2,-1.4724329E0,1.263879E0,-4.668495E-3,-5.5872566E-1,1.4353851E-3,4.2014457E-3,-2.9414E-3,-3.3346303E-5],"categories":[],"categories_nodes":[],"categories_segments":[],"categories_sizes":[],"default_left":[0,0,0,0,0,0,0,0,0],"id":36,"left_children":[1,3,5,-1,7,-1,-1,-1,-1],"loss_changes":[2.9473068E2,2.393193E1,2.426213E1,0E0,6.700736E0,0E0,0E0,0E0,0E0],"parents":[2147483647,0,0,1,1,2,2,4,4],"right_children":[2,4,6,-1,8,-1,-1,-1,-1],"split_conditions":[2.8123736E-1,1.8749157E-1,4.6872893E-1,-4.668495E-3,5.190523E-1,1.4353851E-3,4.2014457E-3,-2.9414E-3,-3.3346303E-5],"split_indices":[2,2,2,0,1,0,0,0,0],"split_type":[0,0,0,0,0,0,0,0,0],"sum_hessian":[1.593606E2,7.096526E1,8.8395325E1,5.0547188E1,2.0418076E1,3.1872118E1,5.652321E1,9.711036E0,1.070704E1],"tree_param":{"num_deleted":"0","num_feature":"12","num_nodes":"9","size_leaf_vector":"1"}},{"base_weights":[4.251962E-2,-1.5293127E0,1.1411984E0,-4.7688033E-3,-2.249735E-3,6.155022E-4,3.7155573E-3],"categories":[],"categories_nodes":[],"categories_segments":[],"categories_sizes":[],"default_left":[0,0,0,0,0,0,0],"id":37,"left_children":[1,3,5,-1,-1,-1,-1],"loss_changes":[2.8638626E2,1.5405365E1,2.8449638E1,0E0,0E0,0E0,0E0],"parents":[2147483647,0,0,1,1,2,2],"right_children":[2,4,6,-1,-1,-1,-1],"split_conditions":[2.8123736E-1,1.4061868E-1,4.2185605E-1,-4.7688033E-3,-2.249735E-3,6.155022E-4,3.7155573E-3],"split_indices":[2,2,2,0,0,0,0],"split_type":[0,0,0,0,0,0,0],"sum_hessian":[1.6583461E2,6.822625E1,9.760836E1,4.4073162E1,2.415309E1,2.5896095E1,7.1712265E1],"tree_param":{"num_deleted":"0","num_feature":"12","num_nodes":"7","size_leaf_vector":"1"}},{"base_weights":[3.4065936E-2,-4.378884E-3,2.763231E-3],"categories":[],"categories_nodes":[],"categories_segments":[],"categories_sizes":[],"default_left":[0,0,0],"id":38,"left_children":[1,-1,-1],"loss_changes":[2.9036102E2,0E0,0E0],"parents":[2147483647,0,0],"right_children":[2,-1,-1],"split_conditions":[2.3436446E-1,-4.378884E-3,2.763231E-3],"split_indices":[2,0,0],"split_type":[0,0,0],"sum_hessian":[1.5612358E2,5.8515217E1,9.760836E1],"tree_param":{"num_deleted":"0","num_feature":"12","num_nodes":"3","size_leaf_vector":"1"}},{"base_weights":[4.1493222E-2],"categories":[],"categories_nodes":[],"categories_segments":[],"categories_sizes":[],"default_left":[0],"id":39,"left_children":[-1],"loss_changes":[0E0],"parents":[2147483647],"right_children":[-1],"split_conditions":[1.05190986E-4],"split_indices":[0],"split_type":[0],"sum_hessian":[1.638426E2],"tree_param":{"num_deleted":"0","num_feature":"12","num_nodes":"1","size_leaf_vector":"1"}},{"base_weights":[5.7490602E-2],"categories":[],"categories_nodes":[],"categories_segments":[],"categories_sizes":[],"default_left":[0],"id":40,"left_children":[-1],"loss_changes":[0E0],"parents":[2147483647],"right_children":[-1],"split_conditions":[1.4574653E-4],"split_indices":[0],"split_type":[0],"sum_hessian":[1.6558562E2],"tree_param":{"num_deleted":"0","num_feature":"12","num_nodes":"1","size_leaf_vector":"1"}},{"base_weights":[-1.2723926E-1,-1.6597264E0,9.025273E-1,-4.6280487E-3,-1.7419489E-3,2.909607E-4,3.8350553E-3],"categories":[],"categories_nodes":[],"categories_segments":[],"categories_sizes":[],"default_left":[0,0,0,0,0,0,0],"id":41,"left_children":[1,3,5,-1,-1,-1,-1],"loss_changes":[2.4834401E2,1.0201126E1,4.524604E1,0E0,0E0,0E0,0E0],"parents":[2147483647,0,0,1,1,2,2],"right_children":[2,4,6,-1,-1,-1,-1],"split_conditions":[2.3436446E-1,1.8749157E-1,5.156018E-1,-4.6280487E-3,-1.7419489E-3,2.909607E-4,3.8350553E-3],"split_indices":[2,2,2,0,0,0,0],"split_type":[0,0,0,0,0,0,0],"sum_hessian":[1.5736858E2,6.3246235E1,9.4122345E1,5.40332E1,9.213034E0,4.108515E1,5.3037197E1],"tree_param":{"num_deleted":"0","num_feature":"12","num_nodes":"7","size_leaf_vector":"1"}},{"base_weights":[1.993036E-2],"categories":[],"categories_nodes":[],"categories_segments":[],"categories_sizes":[],"default_left":[0],"id":42,"left_children":[-1],"loss_changes":[0E0],"parents":[2147483647],"right_children":[-1],"split_conditions":[5.052619E-5],"split_indices":[0],"split_type":[0],"sum_hessian":[1.588626E2],"tree_param":{"num_deleted":"0","num_feature":"12","num_nodes":"1","size_leaf_vector":"1"}},{"base_weights":[-6.9272304E-3,-1.2528058E0,1.3984582E0,-4.6569216E-3,-1.3043559E-3,8.822528E-1,4.3377434E-3,1.5794942E-3,4.5639863E-3],"categories":[],"categories_nodes":[],"categories_segments":[],"categories_sizes":[],"default_left":[0,0,0,0,0,0,0,0,0],"id":43,"left_children":[1,3,5,-1,-1,7,-1,-1,-1],"loss_changes":[2.681312E2,3.5008125E1,1.1611725E1,0E0,0E0,6.458666E0,0E0,0E0,0E0],"parents":[2147483647,0,0,1,1,2,2,5,5],"right_children":[2,4,6,-1,-1,8,-1,-1,-1],"split_conditions":[3.7498313E-1,1.8749157E-1,5.624747E-1,-4.6569216E-3,-1.3043559E-3,7.2107476E-1,4.3377434E-3,1.5794942E-3,4.5639863E-3],"split_indices":[2,2,2,0,0,1,0,0,0],"split_type":[0,0,0,0,0,0,0,0,0],"sum_hessian":[1.5313557E2,8.11743E1,7.1961266E1,4.531817E1,3.5856133E1,2.71411E1,4.4820168E1,2.116508E1,5.9760222E0],"tree_param":{"num_deleted":"0","num_feature":"12","num_nodes":"9","size_leaf_vector":"1"}},{"base_weights":[-8.314467E-3,-3.8393962E-3,1.0656034E0,9.2895044E-4,3.545129E-3],"categories":[],"categories_nodes":[],"categories_segments":[],"categories_sizes":[],"default_left":[0,0,0,0,0],"id":44,"left_children":[1,-1,3,-1,-1],"loss_changes":[2.3319615E2,0E0,1.9582947E1,0E0,0E0],"parents":[2147483647,0,0,2,2],"right_children":[2,-1,4,-1,-1],"split_conditions":[2.8123736E-1,-3.8393962E-3,4.6872893E-1,9.2895044E-4,3.545129E-3],"split_indices":[2,0,2,0,0],"split_type":[0,0,0,0,0],"sum_hessian":[1.4417154E2,6.0009224E1,8.4162315E1,2.71411E1,5.702121E1],"tree_param":{"num_deleted":"0","num_feature":"12","num_nodes":"5","size_leaf_vector":"1"}},{"base_weights":[-8.853901E-2,-1.3377357E0,1.3131998E0,-4.6694744E-3,-1.4504755E-3,2.0186848E-3,4.1534593E-3],"categories":[],"categories_nodes":[],"categories_segments":[],"categories_sizes":[],"default_left":[0,0,0,0,0,0,0],"id":45,"left_children":[1,3,5,-1,-1,-1,-1],"loss_changes":[2.8035602E2,3.267746E1,1.2681137E1,0E0,0E0,0E0,0E0],"parents":[2147483647,0,0,1,1,2,2],"right_children":[2,4,6,-1,-1,-1,-1],"split_conditions":[3.7498313E-1,1.8749157E-1,5.624747E-1,-4.6694744E-3,-1.4504755E-3,2.0186848E-3,4.1534593E-3],"split_indices":[2,2,2,0,0,0,0],"split_type":[0,0,0,0,0,0,0],"sum_hessian":[1.6010759E2,8.466032E1,7.544728E1,5.104519E1,3.3615124E1,2.9133108E1,4.631417E1],"tree_param":{"num_deleted":"0","num_feature":"12","num_nodes":"7","size_leaf_vector":"1"}},{"base_weights":[-3.447569E-2],"categories":[],"categories_nodes":[],"categories_segments":[],"categories_sizes":[],"default_left":[0],"id":46,"left_children":[-1],"loss_changes":[0E0],"parents":[2147483647],"right_children":[-1],"split_conditions":[-8.740059E-5],"split_indices":[0],"split_type":[0],"sum_hessian":[1.5487857E2],"tree_param":{"num_deleted":"0","num_feature":"12","num_nodes":"1","size_leaf_vector":"1"}},{"base_weights":[-1.1978865E-2,-1.5500113E0,1.1900129E0,-4.671839E-3,-1.6701666E-3,1.8154668E-3,4.0727933E-3],"categories":[],"categories_nodes":[],"categories_segments":[],"categories_sizes":[],"default_left":[0,0,0,0,0,0,0],"id":47,"left_children":[1,3,5,-1,-1,-1,-1],"loss_changes":[2.9276898E2,1.8129593E1,1.754644E1,0E0,0E0,0E0,0E0],"parents":[2147483647,0,0,1,1,2,2],"right_children":[2,4,6,-1,-1,-1,-1],"split_conditions":[2.8123736E-1,1.8749157E-1,5.624747E-1,-4.671839E-3,-1.6701666E-3,1.8154668E-3,4.0727933E-3],"split_indices":[2,2,2,0,0,0,0],"split_type":[0,0,0,0,0,0,0],"sum_hessian":[1.583646E2,6.947126E1,8.8893326E1,5.2290195E1,1.7181063E1,4.1583153E1,4.7310177E1],"tree_param":{"num_deleted":"0","num_feature":"12","num_nodes":"7","size_leaf_vector":"1"}},{"base_weights":[5.420948E-2,-1.515988E0,1.1715468E0,-4.498026E-3,-2.2234945E-3,4.0013005E-4,4.3562846E-3],"categories":[],"categories_nodes":[],"categories_segments":[],"categories_sizes":[],"default_left":[0,0,0,0,0,0,0],"id":48,"left_children":[1,3,5,-1,-1,-1,-1],"loss_changes":[2.774044E2,1.0847977E1,5.1207214E1,0E0,0E0,0E0,0E0],"parents":[2147483647,0,0,1,1,2,2],"right_children":[2,4,6,-1,-1,-1,-1],"split_conditions":[2.8123736E-1,1.8749157E-1,4.6872893E-1,-4.498026E-3,-2.2234945E-3,4.0013005E-4,4.3562846E-3],"split_indices":[2,2,2,0,0,0,0],"split_type":[0,0,0,0,0,0,0],"sum_hessian":[1.5811559E2,6.5736244E1,9.237934E1,4.6812172E1,1.892407E1,3.237012E1,6.0009224E1],"tree_param":{"num_deleted":"0","num_feature":"12","num_nodes":"7","size_leaf_vector":"1"}},{"base_weights":[1.2372824E-1,-1.515988E0,3.1408102E-3,-4.6604923E-3,-1.4794813E-3],"categories":[],"categories_nodes":[],"categories_segments":[],"categories_sizes":[],"default_left":[0,0,0,0,0],"id":49,"left_children":[1,3,-1,-1,-1],"loss_changes":[2.8457455E2,1.8935577E1,0E0,0E0,0E0],"parents":[2147483647,0,0,1,1],"right_children":[2,4,-1,-1,-1],"split_conditions":[2.8123736E-1,1.8749157E-1,3.1408102E-3,-4.6604923E-3,-1.4794813E-3],"split_indices":[2,2,0,0,0],"split_type":[0,0,0,0,0],"sum_hessian":[1.5562558E2,6.2997234E1,9.262834E1,4.6812172E1,1.618506E1],"tree_param":{"num_deleted":"0","num_feature":"12","num_nodes":"5","size_leaf_vector":"1"}},{"base_weights":[3.5389803E-2],"categories":[],"categories_nodes":[],"categories_segments":[],"categories_sizes":[],"default_left":[0],"id":50,"left_children":[-1],"loss_changes":[0E0],"parents":[2147483647],"right_children":[-1],"split_conditions":[8.9717985E-5],"split_indices":[0],"split_type":[0],"sum_hessian":[1.638426E2],"tree_param":{"num_deleted":"0","num_feature":"12","num_nodes":"1","size_leaf_vector":"1"}},{"base_weights":[-9.688333E-2,-1.6123515E0,1.0386626E0,-4.6183416E-3,-2.4548857E-3,9.043151E-2,3.6951131E-3,-1.7726704E-4,5.412403E-3],"categories":[],"categories_nodes":[],"categories_segments":[],"categories_sizes":[],"default_left":[0,0,0,0,0,0,0,0,0],"id":51,"left_children":[1,3,5,-1,-1,7,-1,-1,-1],"loss_changes":[2.6909906E2,9.031937E0,3.5507248E1,0E0,0E0,8.97987E0,0E0,0E0,0E0],"parents":[2147483647,0,0,1,1,2,2,5,5],"right_children":[2,4,6,-1,-1,8,-1,-1,-1],"split_conditions":[2.8123736E-1,1.8749157E-1,4.2185605E-1,-4.6183416E-3,-2.4548857E-3,1E0,3.6951131E-3,-1.7726704E-4,5.412403E-3],"split_indices":[2,2,2,0,0,7,0,0,0],"split_type":[0,0,0,0,0,0,0,0,0],"sum_hessian":[1.5637257E2,6.698125E1,8.9391335E1,5.0547188E1,1.6434061E1,2.73901E1,6.200123E1,2.5398094E1,1.9920074E0],"tree_param":{"num_deleted":"0","num_feature":"12","num_nodes":"9","size_leaf_vector":"1"}},{"base_weights":[1.8571494E-2,-4.33184E-3,1.0323224E0,1.398674E-3,3.9579673E-3],"categories":[],"categories_nodes":[],"categories_segments":[],"categories_sizes":[],"default_left":[0,0,0,0,0],"id":52,"left_children":[1,-1,3,-1,-1],"loss_changes":[2.7468735E2,0E0,2.512886E1,0E0,0E0],"parents":[2147483647,0,0,2,2],"right_children":[2,-1,4,-1,-1],"split_conditions":[2.3436446E-1,-4.33184E-3,5.624747E-1,1.398674E-3,3.9579673E-3],"split_indices":[2,0,2,0,0],"split_type":[0,0,0,0,0],"sum_hessian":[1.5687057E2,5.8017216E1,9.885336E1,5.179219E1,4.7061172E1],"tree_param":{"num_deleted":"0","num_feature":"12","num_nodes":"5","size_leaf_vector":"1"}},{"base_weights":[1.1748413E-1,-3.839564E-3,3.0059563E-3],"categories":[],"categories_nodes":[],"categories_segments":[],"categories_sizes":[],"default_left":[0,0,0],"id":53,"left_children":[1,-1,-1],"loss_changes":[2.765241E2,0E0,0E0],"parents":[2147483647,0,0],"right_children":[2,-1,-1],"split_conditions":[2.8123736E-1,-3.839564E-3,3.0059563E-3],"split_indices":[2,0,0],"split_type":[0,0,0],"sum_hessian":[1.5861359E2,6.2748234E1,9.586536E1],"tree_param":{"num_deleted":"0","num_feature":"12","num_nodes":"3","size_leaf_vector":"1"}},{"base_weights":[-5.393442E-2,-3.747275E-3,2.89572E-3],"categories":[],"categories_nodes":[],"categories_segments":[],"categories_sizes":[],"default_left":[0,0,0],"id":54,"left_children":[1,-1,-1],"loss_changes":[2.7784723E2,0E0,0E0],"parents":[2147483647,0,0],"right_children":[2,-1,-1],"split_conditions":[2.8123736E-1,-3.747275E-3,2.89572E-3],"split_indices":[2,0,0],"split_type":[0,0,0],"sum_hessian":[1.630956E2,7.445128E1,8.8644325E1],"tree_param":{"num_deleted":"0","num_feature":"12","num_nodes":"3","size_leaf_vector":"1"}},{"base_weights":[1.959385E-2,-1.6607938E0,1.0177189E0,-4.7688033E-3,-2.7634078E-3,3.2181287E-4,3.696491E-3],"categories":[],"categories_nodes":[],"categories_segments":[],"categories_sizes":[],"default_left":[0,0,0,0,0,0,0],"id":55,"left_children":[1,3,5,-1,-1,-1,-1],"loss_changes":[2.6561496E2,7.419739E0,3.8974037E1,0E0,0E0,0E0,0E0],"parents":[2147483647,0,0,1,1,2,2],"right_children":[2,4,6,-1,-1,-1,-1],"split_conditions":[2.3436446E-1,1.4061868E-1,4.2185605E-1,-4.7688033E-3,-2.7634078E-3,3.2181287E-4,3.696491E-3],"split_indices":[2,2,2,0,0,0,0],"split_type":[0,0,0,0,0,0,0],"sum_hessian":[1.583646E2,5.9013218E1,9.9351364E1,4.257916E1,1.6434061E1,3.2868122E1,6.6483246E1],"tree_param":{"num_deleted":"0","num_feature":"12","num_nodes":"7","size_leaf_vector":"1"}},{"base_weights":[6.0113E-2,-4.2399084E-3,2.6889497E-3],"categories":[],"categories_nodes":[],"categories_segments":[],"categories_sizes":[],"default_left":[0,0,0],"id":56,"left_children":[1,-1,-1],"loss_changes":[2.723731E2,0E0,0E0],"parents":[2147483647,0,0],"right_children":[2,-1,-1],"split_conditions":[2.3436446E-1,-4.2399084E-3,2.6889497E-3],"split_indices":[2,0,0],"split_type":[0,0,0],"sum_hessian":[1.5711958E2,5.7519215E1,9.960037E1],"tree_param":{"num_deleted":"0","num_feature":"12","num_nodes":"3","size_leaf_vector":"1"}},{"base_weights":[6.5862895E-3,-1.4885372E0,2.7564557E-3,-4.476519E-3,-1.1964404E-3],"categories":[],"categories_nodes":[],"categories_segments":[],"categories_sizes":[],"default_left":[0,0,0,0,0],"id":57,"left_children":[1,3,-1,-1,-1],"loss_changes":[2.550811E2,1.866835E1,0E0,0E0,0E0],"parents":[2147483647,0,0,1,1],"right_children":[2,4,-1,-1,-1],"split_conditions":[2.8123736E-1,1.8749157E-1,2.7564557E-3,-4.476519E-3,-1.1964404E-3],"split_indices":[2,2,0,0,0],"split_type":[0,0,0,0,0],"sum_hessian":[1.5786658E2,6.6234245E1,9.163234E1,5.204119E1,1.4193052E1],"tree_param":{"num_deleted":"0","num_feature":"12","num_nodes":"5","size_leaf_vector":"1"}},{"base_weights":[1.2479334E-3,-1.2587132E0,3.4932832E-3,-4.425133E-3,-4.0541787E-4],"categories":[],"categories_nodes":[],"categories_segments":[],"categories_sizes":[],"default_left":[0,0,0,0,0],"id":58,"left_children":[1,3,-1,-1,-1],"loss_changes":[2.8290356E2,4.5551254E1,0E0,0E0,0E0],"parents":[2147483647,0,0,1,1],"right_children":[2,4,-1,-1,-1],"split_conditions":[3.7498313E-1,2.3436446E-1,3.4932832E-3,-4.425133E-3,-4.0541787E-4],"split_indices":[2,2,0,0,0],"split_type":[0,0,0,0,0],"sum_hessian":[1.630956E2,8.515832E1,7.793729E1,5.9013218E1,2.6145098E1],"tree_param":{"num_deleted":"0","num_feature":"12","num_nodes":"5","size_leaf_vector":"1"}},{"base_weights":[-1.875156E-2],"categories":[],"categories_nodes":[],"categories_segments":[],"categories_sizes":[],"default_left":[0],"id":59,"left_children":[-1],"loss_changes":[0E0],"parents":[2147483647],"right_children":[-1],"split_conditions":[-4.7537767E-5],"split_indices":[0],"split_type":[0],"sum_hessian":[1.5786658E2],"tree_param":{"num_deleted":"0","num_feature":"12","num_nodes":"1","size_leaf_vector":"1"}},{"base_weights":[1.2813718E-2,-1.686473E0,9.2257345E-1,-4.6121688E-3,-2.2234928E-3,3.5229567E-4,3.629723E-3],"categories":[],"categories_nodes":[],"categories_segments":[],"categories_sizes":[],"default_left":[0,0,0,0,0,0,0],"id":60,"left_children":[1,3,5,-1,-1,-1,-1],"loss_changes":[2.5059671E2,6.076721E0,4.21258E1,0E0,0E0,0E0,0E0],"parents":[2147483647,0,0,1,1,2,2],"right_children":[2,4,6,-1,-1,-1,-1],"split_conditions":[2.3436446E-1,1.8749157E-1,4.6872893E-1,-4.6121688E-3,-2.2234928E-3,3.5229567E-4,3.629723E-3],"split_indices":[2,2,2,0,0,0,0],"split_type":[0,0,0,0,0,0,0],"sum_hessian":[1.620996E2,5.652321E1,1.0557639E2,4.855518E1,7.9680295E0,4.1583153E1,6.3993237E1],"tree_param":{"num_deleted":"0","num_feature":"12","num_nodes":"7","size_leaf_vector":"1"}},{"base_weights":[-1.6173229E-1,-6.7620724E-2,-7.603253E-1,-1.4726716E0,9.985916E-1,-3.7673688E-3,2.5616805E-3,-4.768803E-3,-2.023302E-3,5.8065774E-4,3.724349E-3],"categories":[],"categories_nodes":[],"categories_segments":[],"categories_sizes":[],"default_left":[0,0,0,0,0,0,0,0,0,0,0],"id":61,"left_children":[1,3,5,7,9,-1,-1,-1,-1,-1,-1],"loss_changes":[8.8793125E0,2.0404411E2,2.751991E1,1.6189613E1,2.8038635E1,0E0,0E0,0E0,0E0,0E0,0E0],"parents":[2147483647,0,0,1,1,2,2,3,3,4,4],"right_children":[2,4,6,8,10,-1,-1,-1,-1,-1,-1],"split_conditions":[1E0,2.8123736E-1,4.2185605E-1,1.4061868E-1,5.156018E-1,-3.7673688E-3,2.5616805E-3,-4.768803E-3,-2.023302E-3,5.8065774E-4,3.724349E-3],"split_indices":[8,2,2,2,2,0,0,0,0,0,0],"split_type":[0,0,0,0,0,0,0,0,0,0,0],"sum_hessian":[1.5761758E2,1.362035E2,2.141408E1,5.8764217E1,7.7439285E1,1.5189056E1,6.2250233E0,3.6603134E1,2.2161081E1,2.9382109E1,4.805718E1],"tree_param":{"num_deleted":"0","num_feature":"12","num_nodes":"11","size_leaf_vector":"1"}},{"base_weights":[-9.755857E-2,-1.5108094E0,1.0033717E0,-4.7688033E-3,-2.466959E-3,4.557765E-4,4.0549315E-3],"categories":[],"categories_nodes":[],"categories_segments":[],"categories_sizes":[],"default_left":[0,0,0,0,0,0,0],"id":62,"left_children":[1,3,5,-1,-1,-1,-1],"loss_changes":[2.4949734E2,1.3980225E1,4.4254128E1,0E0,0E0,0E0,0E0],"parents":[2147483647,0,0,1,1,2,2],"right_children":[2,4,6,-1,-1,-1,-1],"split_conditions":[2.8123736E-1,1.4061868E-1,5.624747E-1,-4.7688033E-3,-2.466959E-3,4.557765E-4,4.0549315E-3],"split_indices":[2,2,2,0,0,0,0],"split_type":[0,0,0,0,0,0,0],"sum_hessian":[1.603566E2,7.021826E1,9.0138336E1,4.1583153E1,2.8635105E1,3.784814E1,5.2290195E1],"tree_param":{"num_deleted":"0","num_feature":"12","num_nodes":"7","size_leaf_vector":"1"}},{"base_weights":[8.821982E-3,-1.5244458E0,1.0821095E0,-4.5544617E-3,-1.9652746E-3,4.7008324E-4,3.6202273E-3],"categories":[],"categories_nodes":[],"categories_segments":[],"categories_sizes":[],"default_left":[0,0,0,0,0,0,0],"id":63,"left_children":[1,3,5,-1,-1,-1,-1],"loss_changes":[2.5774234E2,1.3147018E1,2.857631E1,0E0,0E0,0E0,0E0],"parents":[2147483647,0,0,1,1,2,2],"right_children":[2,4,6,-1,-1,-1,-1],"split_conditions":[2.8123736E-1,1.8749157E-1,4.2185605E-1,-4.5544617E-3,-1.9652746E-3,4.7008324E-4,3.6202273E-3],"split_indices":[2,2,2,0,0,0,0],"split_type":[0,0,0,0,0,0,0],"sum_hessian":[1.5662158E2,6.449124E1,9.213034E1,4.7310177E1,1.7181063E1,2.5647095E1,6.6483246E1],"tree_param":{"num_deleted":"0","num_feature":"12","num_nodes":"7","size_leaf_vector":"1"}},{"base_weights":[-4.5935214E-2],"categories":[],"categories_nodes":[],"categories_segments":[],"categories_sizes":[],"default_left":[0],"id":64,"left_children":[-1],"loss_changes":[0E0],"parents":[2147483647],"right_children":[-1],"split_conditions":[-1.1645204E-4],"split_indices":[0],"split_type":[0],"sum_hessian":[1.5039656E2],"tree_param":{"num_deleted":"0","num_feature":"12","num_nodes":"1","size_leaf_vector":"1"}},{"base_weights":[2.262811E-2,-1.5103712E0,1.1422343E0,-4.768803E-3,-2.58711E-3,5.036206E-4,3.993733E-3],"categories":[],"categories_nodes":[],"categories_segments":[],"categories_sizes":[],"default_left":[0,0,0,0,0,0,0],"id":65,"left_children":[1,3,5,-1,-1,-1,-1],"loss_changes":[2.6326248E2,1.1756851E1,3.622722E1,0E0,0E0,0E0,0E0],"parents":[2147483647,0,0,1,1,2,2],"right_children":[2,4,6,-1,-1,-1,-1],"split_conditions":[2.8123736E-1,1.4061868E-1,4.6872893E-1,-4.768803E-3,-2.58711E-3,5.036206E-4,3.993733E-3],"split_indices":[2,2,2,0,0,0,0],"split_type":[0,0,0,0,0,0,0],"sum_hessian":[1.5338457E2,6.474024E1,8.8644325E1,3.6852135E1,2.7888103E1,2.7888103E1,6.0756226E1],"tree_param":{"num_deleted":"0","num_feature":"12","num_nodes":"7","size_leaf_vector":"1"}},{"base_weights":[5.0482093E-3,-3.9203675E-3,1.0504175E0,5.222308E-4,3.7636466E-3],"categories":[],"categories_nodes":[],"categories_segments":[],"categories_sizes":[],"default_left":[0,0,0,0,0],"id":66,"left_children":[1,-1,3,-1,-1],"loss_changes":[2.5280516E2,0E0,3.4142624E1,0E0,0E0],"parents":[2147483647,0,0,2,2],"right_children":[2,-1,4,-1,-1],"split_conditions":[2.8123736E-1,-3.9203675E-3,4.6872893E-1,5.222308E-4,3.7636466E-3],"split_indices":[2,0,2,0,0],"split_type":[0,0,0,0,0],"sum_hessian":[1.5587457E2,6.2748234E1,9.312634E1,3.1623117E1,6.1503227E1],"tree_param":{"num_deleted":"0","num_feature":"12","num_nodes":"5","size_leaf_vector":"1"}},{"base_weights":[-4.8761077E-2,-1.488209E0,1.0426885E0,-4.6654404E-3,-1.5468939E-3,2.2523594E-1,3.9842925E-3,2.835376E-4,4.394289E-3],"categories":[],"categories_nodes":[],"categories_segments":[],"categories_sizes":[],"default_left":[0,0,0,0,0,0,0,0,0],"id":67,"left_children":[1,3,5,-1,-1,7,-1,-1,-1],"loss_changes":[2.5036903E2,2.124649E1,3.918962E1,0E0,0E0,6.0891666E0,0E0,0E0,0E0],"parents":[2147483647,0,0,1,1,2,2,5,5],"right_children":[2,4,6,-1,-1,8,-1,-1,-1],"split_conditions":[2.8123736E-1,1.8749157E-1,5.156018E-1,-4.6654404E-3,-1.5468939E-3,1E0,3.9842925E-3,2.835376E-4,4.394289E-3],"split_indices":[2,2,2,0,0,5,0,0,0],"split_type":[0,0,0,0,0,0,0,0,0],"sum_hessian":[1.593606E2,6.872425E1,9.063634E1,4.905318E1,1.9671072E1,3.5607132E1,5.5029205E1,3.3117123E1,2.4900093E0],"tree_param":{"num_deleted":"0","num_feature":"12","num_nodes":"9","size_leaf_vector":"1"}},{"base_weights":[-3.7237037E-2,-1.5698767E0,2.7904136E-3,-4.621959E-3,-7.336405E-1,-4.0579984E-1,-4.76879E-3,-4.7687828E-3,-1.8724853E-4],"categories":[],"categories_nodes":[],"categories_segments":[],"categories_sizes":[],"default_left":[0,0,0,0,0,0,0,0,0],"id":68,"left_children":[1,3,-1,-1,5,7,-1,-1,-1],"loss_changes":[2.7619427E2,1.4292389E1,0E0,0E0,5.901102E0,5.9748645E0,0E0,0E0,0E0],"parents":[2147483647,0,0,1,1,4,4,5,5],"right_children":[2,4,-1,-1,6,8,-1,-1,-1],"split_conditions":[2.8123736E-1,1.8749157E-1,2.7904136E-3,-4.621959E-3,8.323676E-1,2.4284446E-1,-4.76879E-3,-4.7687828E-3,-1.8724853E-4],"split_indices":[2,2,0,0,0,1,0,0,0],"split_type":[0,0,0,0,0,0,0,0,0],"sum_hessian":[1.583646E2,6.747925E1,9.088534E1,5.179219E1,1.5687058E1,1.2201045E1,3.486013E0,2.2410083E0,9.960037E0],"tree_param":{"num_deleted":"0","num_feature":"12","num_nodes":"9","size_leaf_vector":"1"}},{"base_weights":[-4.8761077E-2,-1.573284E0,1.0925485E0,-4.7688033E-3,-2.7325563E-3,4.3586788E-1,4.4164388E-3,5.388576E-5,2.2527357E-3],"categories":[],"categories_nodes":[],"categories_segments":[],"categories_sizes":[],"default_left":[0,0,0,0,0,0,0,0,0],"id":69,"left_children":[1,3,5,-1,-1,7,-1,-1,-1],"loss_changes":[2.772799E2,1.040361E1,3.887262E1,0E0,0E0,8.506698E0,0E0,0E0,0E0],"parents":[2147483647,0,0,1,1,2,2,5,5],"right_children":[2,4,6,-1,-1,8,-1,-1,-1],"split_conditions":[2.8123736E-1,1.4061868E-1,5.624747E-1,-4.7688033E-3,-2.7325563E-3,4.2185605E-1,4.4164388E-3,5.388576E-5,2.2527357E-3],"split_indices":[2,2,2,0,0,2,0,0,0],"split_type":[0,0,0,0,0,0,0,0,0],"sum_hessian":[1.593606E2,6.822625E1,9.113434E1,4.2081158E1,2.6145098E1,4.531817E1,4.581617E1,2.3655088E1,2.166308E1],"tree_param":{"num_deleted":"0","num_feature":"12","num_nodes":"9","size_leaf_vector":"1"}},{"base_weights":[5.420948E-2,-1.5640268E0,1.2207431E0,-4.600981E-3,-2.5871098E-3,1.3158385E-3,4.5979302E-3],"categories":[],"categories_nodes":[],"categories_segments":[],"categories_sizes":[],"default_left":[0,0,0,0,0,0,0],"id":70,"left_children":[1,3,5,-1,-1,-1,-1],"loss_changes":[2.984791E2,9.030869E0,3.822873E1,0E0,0E0,0E0,0E0],"parents":[2147483647,0,0,1,1,2,2],"right_children":[2,4,6,-1,-1,-1,-1],"split_conditions":[2.8123736E-1,1.8749157E-1,5.624747E-1,-4.600981E-3,-2.5871098E-3,1.3158385E-3,4.5979302E-3],"split_indices":[2,2,2,0,0,0,0],"split_type":[0,0,0,0,0,0,0],"sum_hessian":[1.5811559E2,6.6234245E1,9.188134E1,4.531817E1,2.0916077E1,4.2081158E1,4.9800186E1],"tree_param":{"num_deleted":"0","num_feature":"12","num_nodes":"7","size_leaf_vector":"1"}},{"base_weights":[2.1925528E-2,-1.5244458E0,1.0985658E0,-4.3503963E-3,-1.205371E-3,3.2181287E-4,3.7155573E-3],"categories":[],"categories_nodes":[],"categories_segments":[],"categories_sizes":[],"default_left":[0,0,0,0,0,0,0],"id":71,"left_children":[1,3,5,-1,-1,-1,-1],"loss_changes":[2.6158618E2,1.2961365E1,3.303524E1,0E0,0E0,0E0,0E0],"parents":[2147483647,0,0,1,1,2,2],"right_children":[2,4,6,-1,-1,-1,-1],"split_conditions":[2.8123736E-1,2.3436446E-1,4.2185605E-1,-4.3503963E-3,-1.205371E-3,3.2181287E-4,3.7155573E-3],"split_indices":[2,2,2,0,0,0,0],"split_type":[0,0,0,0,0,0,0],"sum_hessian":[1.5711958E2,6.449124E1,9.262834E1,5.45312E1,9.960037E0,2.5398094E1,6.723025E1],"tree_param":{"num_deleted":"0","num_feature":"12","num_nodes":"7","size_leaf_vector":"1"}},{"base_weights":[2.550172E-3,-3.8730907E-1,1.2694107E-1,-4.361552E-3,1.8661567E-3,-1.536271E0,1.1690804E0,-4.627397E-3,-1.9406821E-3,9.770405E-4,3.897083E-3],"categories":[],"categories_nodes":[],"categories_segments":[],"categories_sizes":[],"default_left":[0,0,0,0,0,0,0,0,0,0,0],"id":72,"left_children":[1,3,5,-1,-1,7,9,-1,-1,-1,-1],"loss_changes":[8.187045E0,6.1159294E1,2.218388E2,0E0,0E0,1.0983269E1,2.2701218E1,0E0,0E0,0E0,0E0],"parents":[2147483647,0,0,1,1,2,2,5,5,6,6],"right_children":[2,4,6,-1,-1,8,10,-1,-1,-1,-1],"split_conditions":[3.4493604E-1,2.8123736E-1,2.8123736E-1,-4.361552E-3,1.8661567E-3,1.8749157E-1,4.6872893E-1,-4.627397E-3,-1.9406821E-3,9.770405E-4,3.897083E-3],"split_indices":[1,2,2,0,0,2,2,0,0,0,0],"split_type":[0,0,0,0,0,0,0,0,0,0,0],"sum_hessian":[1.6882263E2,4.083615E1,1.2798647E2,1.867507E1,2.2161081E1,4.930218E1,7.868429E1,3.5856133E1,1.344605E1,2.5149094E1,5.35352E1],"tree_param":{"num_deleted":"0","num_feature":"12","num_nodes":"11","size_leaf_vector":"1"}},{"base_weights":[1.6403412E-3,-1.2641603E0,1.4359263E0,-4.400252E-3,-8.247221E-4,2.452768E-3,4.133627E-3],"categories":[],"categories_nodes":[],"categories_segments":[],"categories_sizes":[],"default_left":[0,0,0,0,0,0,0],"id":73,"left_children":[1,3,5,-1,-1,-1,-1],"loss_changes":[2.8254138E2,3.6597916E1,6.6506042E0,0E0,0E0,0E0,0E0],"parents":[2147483647,0,0,1,1,2,2],"right_children":[2,4,6,-1,-1,-1,-1],"split_conditions":[3.7498313E-1,2.3436446E-1,5.156018E-1,-4.400252E-3,-8.247221E-4,2.452768E-3,4.133627E-3],"split_indices":[2,2,2,0,0,0,0],"split_type":[0,0,0,0,0,0,0],"sum_hessian":[1.5562558E2,8.2668304E1,7.295727E1,5.5029205E1,2.7639103E1,2.141408E1,5.154319E1],"tree_param":{"num_deleted":"0","num_feature":"12","num_nodes":"7","size_leaf_vector":"1"}},{"base_weights":[-5.318073E-2,-4.4948687E-3,9.587613E-1,3.6738427E-5,3.6086675E-3],"categories":[],"categories_nodes":[],"categories_segments":[],"categories_sizes":[],"default_left":[0,0,0,0,0],"id":74,"left_children":[1,-1,3,-1,-1],"loss_changes":[2.6088135E2,0E0,4.141031E1,0E0,0E0],"parents":[2147483647,0,0,2,2],"right_children":[2,-1,4,-1,-1],"split_conditions":[2.3436446E-1,-4.4948687E-3,4.2185605E-1,3.6738427E-5,3.6086675E-3],"split_indices":[2,0,2,0,0],"split_type":[0,0,0,0,0],"sum_hessian":[1.4989856E2,5.5527206E1,9.437135E1,3.1125114E1,6.3246235E1],"tree_param":{"num_deleted":"0","num_feature":"12","num_nodes":"5","size_leaf_vector":"1"}},{"base_weights":[-1.19872265E-1,-1.5004774E0,1.076913E0,-4.500876E-3,-1.7666444E-3,3.7794405E-1,3.553615E-3,2.0060773E-4,3.2307324E-3],"categories":[],"categories_nodes":[],"categories_segments":[],"categories_sizes":[],"default_left":[0,0,0,0,0,0,0,0,0],"id":75,"left_children":[1,3,5,-1,-1,7,-1,-1,-1],"loss_changes":[2.7112665E2,1.6833572E1,1.9956871E1,0E0,0E0,7.470315E0,0E0,0E0,0E0],"parents":[2147483647,0,0,1,1,2,2,5,5],"right_children":[2,4,6,-1,-1,8,-1,-1,-1],"split_conditions":[2.8123736E-1,1.8749157E-1,4.6872893E-1,-4.500876E-3,-1.7666444E-3,6.6765964E-1,3.553615E-3,2.0060773E-4,3.2307324E-3],"split_indices":[2,2,2,0,0,1,0,0,0],"split_type":[0,0,0,0,0,0,0,0,0],"sum_hessian":[1.6409161E2,7.619428E1,8.789732E1,5.677221E1,1.9422071E1,2.7888103E1,6.0009224E1,2.0916077E1,6.972026E0],"tree_param":{"num_deleted":"0","num_feature":"12","num_nodes":"9","size_leaf_vector":"1"}},{"base_weights":[8.821982E-3,-1.2659084E0,1.4790109E0,-4.7688033E-3,-1.5758723E-3,2.7282857E-3,4.3407204E-3],"categories":[],"categories_nodes":[],"categories_segments":[],"categories_sizes":[],"default_left":[0,0,0,0,0,0,0],"id":76,"left_children":[1,3,5,-1,-1,-1,-1],"loss_changes":[3.0145673E2,3.414766E1,7.0175476E0,0E0,0E0,0E0,0E0],"parents":[2147483647,0,0,1,1,2,2],"right_children":[2,4,6,-1,-1,-1,-1],"split_conditions":[3.7498313E-1,1.4061868E-1,5.624747E-1,-4.7688033E-3,-1.5758723E-3,2.7282857E-3,4.3407204E-3],"split_indices":[2,2,2,0,0,0,0],"split_type":[0,0,0,0,0,0,0],"sum_hessian":[1.608546E2,8.615432E1,7.470028E1,4.4073162E1,4.2081158E1,2.73901E1,4.7310177E1],"tree_param":{"num_deleted":"0","num_feature":"12","num_nodes":"7","size_leaf_vector":"1"}},{"base_weights":[-5.633817E-3,-4.503206E-3,2.6262607E-3],"categories":[],"categories_nodes":[],"categories_segments":[],"categories_sizes":[],"default_left":[0,0,0],"id":77,"left_children":[1,-1,-1],"loss_changes":[2.8518414E2,0E0,0E0],"parents":[2147483647,0,0],"right_children":[2,-1,-1],"split_conditions":[2.3436446E-1,-4.503206E-3,2.6262607E-3],"split_indices":[2,0,0],"split_type":[0,0,0],"sum_hessian":[1.5462958E2,5.727021E1,9.735936E1],"tree_param":{"num_deleted":"0","num_feature":"12","num_nodes":"3","size_leaf_vector":"1"}},{"base_weights":[2.5723577E-2,-1.6072618E0,9.352345E-1,-4.768803E-3,-2.6178379E-3,6.346441E-4,3.8098278E-3],"categories":[],"categories_nodes":[],"categories_segments":[],"categories_sizes":[],"default_left":[0,0,0,0,0,0,0],"id":78,"left_children":[1,3,5,-1,-1,-1,-1],"loss_changes":[2.2743974E2,8.619553E0,3.8233635E1,0E0,0E0,0E0,0E0],"parents":[2147483647,0,0,1,1,2,2],"right_children":[2,4,6,-1,-1,-1,-1],"split_conditions":[2.3436446E-1,1.4061868E-1,5.156018E-1,-4.768803E-3,-2.6178379E-3,6.346441E-4,3.8098278E-3],"split_indices":[2,2,2,0,0,0,0],"split_type":[0,0,0,0,0,0,0],"sum_hessian":[1.5313557E2,5.47802E1,9.835536E1,3.710114E1,1.7679066E1,4.4571163E1,5.37842E1],"tree_param":{"num_deleted":"0","num_feature":"12","num_nodes":"7","size_leaf_vector":"1"}},{"base_weights":[-1.16551675E-1,-4.2781415E-3,8.968572E-1,1.8958912E-4,3.6570444E-3],"categories":[],"categories_nodes":[],"categories_segments":[],"categories_sizes":[],"default_left":[0,0,0,0,0],"id":79,"left_children":[1,-1,3,-1,-1],"loss_changes":[2.5172833E2,0E0,4.3116287E1,0E0,0E0],"parents":[2147483647,0,0,2,2],"right_children":[2,-1,4,-1,-1],"split_conditions":[2.3436446E-1,-4.2781415E-3,4.6872893E-1,1.8958912E-4,3.6570444E-3],"split_indices":[2,0,2,0,0],"split_type":[0,0,0,0,0],"sum_hessian":[1.5811559E2,6.200123E1,9.611436E1,3.834614E1,5.7768215E1],"tree_param":{"num_deleted":"0","num_feature":"12","num_nodes":"5","size_leaf_vector":"1"}},{"base_weights":[1.1720914E-1,-1.564859E0,1.2877443E0,-4.4898656E-3,-6.963096E-4,1.3126039E-3,4.6111285E-3],"categories":[],"categories_nodes":[],"categories_segments":[],"categories_sizes":[],"default_left":[0,0,0,0,0,0,0],"id":80,"left_children":[1,3,5,-1,-1,-1,-1],"loss_changes":[3.0347275E2,1.6825562E1,3.716931E1,0E0,0E0,0E0,0E0],"parents":[2147483647,0,0,1,1,2,2],"right_children":[2,4,6,-1,-1,-1,-1],"split_conditions":[2.8123736E-1,2.3436446E-1,5.156018E-1,-4.4898656E-3,-6.963096E-4,1.3126039E-3,4.6111285E-3],"split_indices":[2,2,2,0,0,0,0],"split_type":[0,0,0,0,0,0,0],"sum_hessian":[1.5413158E2,6.3246235E1,9.088534E1,5.45312E1,8.715033E0,3.710114E1,5.37842E1],"tree_param":{"num_deleted":"0","num_feature":"12","num_nodes":"7","size_leaf_vector":"1"}},{"base_weights":[4.5691527E-2,-1.645768E0,1.0388421E0,-4.7688033E-3,-2.705039E-3,2.2904399E-1,4.036587E-3,1.5056486E-1,5.412399E-3,2.2797403E-3,-1.8336269E-4],"categories":[],"categories_nodes":[],"categories_segments":[],"categories_sizes":[],"default_left":[0,0,0,0,0,0,0,0,0,0,0],"id":81,"left_children":[1,3,5,-1,-1,7,-1,9,-1,-1,-1],"loss_changes":[2.8945685E2,8.681213E0,4.865354E1,0E0,0E0,6.592202E0,0E0,7.063999E0,0E0,0E0,0E0],"parents":[2147483647,0,0,1,1,2,2,5,5,7,7],"right_children":[2,4,6,-1,-1,8,-1,10,-1,-1,-1],"split_conditions":[2.3436446E-1,1.4061868E-1,4.6872893E-1,-4.7688033E-3,-2.705039E-3,1E0,4.036587E-3,3.83763E-1,5.412399E-3,2.2797403E-3,-1.8336269E-4],"split_indices":[2,2,2,0,0,0,0,0,0,0,0],"split_type":[0,0,0,0,0,0,0,0,0,0,0],"sum_hessian":[1.7230864E2,6.3744236E1,1.085644E2,4.531817E1,1.8426067E1,4.4073162E1,6.449124E1,4.233016E1,1.7430065E0,9.711036E0,3.261912E1],"tree_param":{"num_deleted":"0","num_feature":"12","num_nodes":"11","size_leaf_vector":"1"}},{"base_weights":[-7.943013E-2,-3.7883883E-3,1.0343574E0,1.3031366E-3,3.8593598E-3],"categories":[],"categories_nodes":[],"categories_segments":[],"categories_sizes":[],"default_left":[0,0,0,0,0],"id":82,"left_children":[1,-1,3,-1,-1],"loss_changes":[2.4054512E2,0E0,2.1686165E1,0E0,0E0],"parents":[2147483647,0,0,2,2],"right_children":[2,-1,4,-1,-1],"split_conditions":[2.8123736E-1,-3.7883883E-3,5.624747E-1,1.3031366E-3,3.8593598E-3],"split_indices":[2,0,2,0,0],"split_type":[0,0,0,0,0],"sum_hessian":[1.5263756E2,6.723025E1,8.540732E1,4.1334152E1,4.4073162E1],"tree_param":{"num_deleted":"0","num_feature":"12","num_nodes":"5","size_leaf_vector":"1"}},{"base_weights":[5.5830594E-2],"categories":[],"categories_nodes":[],"categories_segments":[],"categories_sizes":[],"default_left":[0],"id":83,"left_children":[-1],"loss_changes":[0E0],"parents":[2147483647],"right_children":[-1],"split_conditions":[1.4153818E-4],"split_indices":[0],"split_type":[0],"sum_hessian":[1.4765755E2],"tree_param":{"num_deleted":"0","num_feature":"12","num_nodes":"1","size_leaf_vector":"1"}},{"base_weights":[-2.3439622E-2,-1.5464127E0,1.0926323E0,-4.5720646E-3,-8.8946605E-1,6.1270525E-4,3.9637163E-3,-4.132472E-3,-1.028758E-3],"categories":[],"categories_nodes":[],"categories_segments":[],"categories_sizes":[],"default_left":[0,0,0,0,0,0,0,0,0],"id":84,"left_children":[1,3,5,-1,7,-1,-1,-1,-1],"loss_changes":[2.8822556E2,1.21106415E1,3.921083E1,0E0,7.224745E0,0E0,0E0,0E0,0E0],"parents":[2147483647,0,0,1,1,2,2,4,4],"right_children":[2,4,6,-1,8,-1,-1,-1,-1],"split_conditions":[2.8123736E-1,1.8749157E-1,4.6872893E-1,-4.5720646E-3,3.861394E-1,6.1270525E-4,3.9637163E-3,-4.132472E-3,-1.028758E-3],"split_indices":[2,2,2,0,1,0,0,0,0],"split_type":[0,0,0,0,0,0,0,0,0],"sum_hessian":[1.6956963E2,7.1712265E1,9.785736E1,5.154319E1,2.0169075E1,3.486013E1,6.2997234E1,7.9680295E0,1.2201045E1],"tree_param":{"num_deleted":"0","num_feature":"12","num_nodes":"9","size_leaf_vector":"1"}},{"base_weights":[6.6668615E-2,-1.3973987E0,1.1840905E0,-4.768803E-3,-1.9215092E-3,9.257842E-4,4.018319E-3],"categories":[],"categories_nodes":[],"categories_segments":[],"categories_sizes":[],"default_left":[0,0,0,0,0,0,0],"id":85,"left_children":[1,3,5,-1,-1,-1,-1],"loss_changes":[2.5785938E2,2.110176E1,2.93516E1,0E0,0E0,0E0,0E0],"parents":[2147483647,0,0,1,1,2,2],"right_children":[2,4,6,-1,-1,-1,-1],"split_conditions":[2.8123736E-1,1.4061868E-1,4.6872893E-1,-4.768803E-3,-1.9215092E-3,9.257842E-4,4.018319E-3],"split_indices":[2,2,2,0,0,0,0],"split_type":[0,0,0,0,0,0,0],"sum_hessian":[1.5761758E2,6.822625E1,8.9391335E1,3.8844143E1,2.9382109E1,2.9382109E1,6.0009224E1],"tree_param":{"num_deleted":"0","num_feature":"12","num_nodes":"7","size_leaf_vector":"1"}},{"base_weights":[-5.8930703E-2,-4.300701E-3,2.57294E-3],"categories":[],"categories_nodes":[],"categories_segments":[],"categories_sizes":[],"default_left":[0,0,0],"id":86,"left_children":[1,-1,-1],"loss_changes":[2.885427E2,0E0,0E0],"parents":[2147483647,0,0],"right_children":[2,-1,-1],"split_conditions":[2.3436446E-1,-4.300701E-3,2.57294E-3],"split_indices":[2,0,0],"split_type":[0,0,0],"sum_hessian":[1.6409161E2,6.498924E1,9.910236E1],"tree_param":{"num_deleted":"0","num_feature":"12","num_nodes":"3","size_leaf_vector":"1"}},{"base_weights":[-4.167168E-2,-1.2532055E0,1.2580435E0,-4.507746E-3,-1.375059E-3,2.1057038E-3,3.826408E-3],"categories":[],"categories_nodes":[],"categories_segments":[],"categories_sizes":[],"default_left":[0,0,0,0,0,0,0],"id":87,"left_children":[1,3,5,-1,-1,-1,-1],"loss_changes":[2.5681833E2,3.1494125E1,8.452057E0,0E0,0E0,0E0,0E0],"parents":[2147483647,0,0,1,1,2,2],"right_children":[2,4,6,-1,-1,-1,-1],"split_conditions":[3.7498313E-1,1.8749157E-1,5.624747E-1,-4.507746E-3,-1.375059E-3,2.1057038E-3,3.826408E-3],"split_indices":[2,2,2,0,0,0,0],"split_type":[0,0,0,0,0,0,0],"sum_hessian":[1.630956E2,8.4411316E1,7.868429E1,4.855518E1,3.5856133E1,2.9133108E1,4.955118E1],"tree_param":{"num_deleted":"0","num_feature":"12","num_nodes":"7","size_leaf_vector":"1"}},{"base_weights":[-4.996372E-2,-7.9118926E-4,1.4876743E-1,-3.139806E-3,1.4066664E0,2.2610945E-3,4.571776E-3],"categories":[],"categories_nodes":[],"categories_segments":[],"categories_sizes":[],"default_left":[0,0,0,0,0,0,0],"id":88,"left_children":[1,-1,3,-1,5,-1,-1],"loss_changes":[8.392295E0,0E0,1.5990413E2,0E0,9.813538E0,0E0,0E0],"parents":[2147483647,0,0,2,2,4,4],"right_children":[2,-1,4,-1,6,-1,-1],"split_conditions":[4.9591413E-1,-7.9118926E-4,3.7498313E-1,-3.139806E-3,6.0934764E-1,2.2610945E-3,4.571776E-3],"split_indices":[0,0,2,0,2,0,0],"split_type":[0,0,0,0,0,0,0],"sum_hessian":[1.6110359E2,6.947126E1,9.163234E1,4.357516E1,4.805718E1,2.0916077E1,2.71411E1],"tree_param":{"num_deleted":"0","num_feature":"12","num_nodes":"7","size_leaf_vector":"1"}},{"base_weights":[5.5997044E-2,-4.3805363E-3,1.0704707E0,2.8235075E-4,3.8104872E-3],"categories":[],"categories_nodes":[],"categories_segments":[],"categories_sizes":[],"default_left":[0,0,0,0,0],"id":89,"left_children":[1,-1,3,-1,-1],"loss_changes":[2.9335913E2,0E0,4.2874252E1,0E0,0E0],"parents":[2147483647,0,0,2,2],"right_children":[2,-1,4,-1,-1],"split_conditions":[2.3436446E-1,-4.3805363E-3,4.2185605E-1,2.8235075E-4,3.8104872E-3],"split_indices":[2,0,2,0,0],"split_type":[0,0,0,0,0],"sum_hessian":[1.620996E2,5.8764217E1,1.0333538E2,3.212112E1,7.1214264E1],"tree_param":{"num_deleted":"0","num_feature":"12","num_nodes":"5","size_leaf_vector":"1"}},{"base_weights":[-5.5606615E-2,-2.806795E-3,3.568003E-3],"categories":[],"categories_nodes":[],"categories_segments":[],"categories_sizes":[],"default_left":[0,0,0],"id":90,"left_children":[1,-1,-1],"loss_changes":[2.5282936E2,0E0,0E0],"parents":[2147483647,0,0],"right_children":[2,-1,-1],"split_conditions":[4.2185605E-1,-2.806795E-3,3.568003E-3],"split_indices":[2,0,0],"split_type":[0,0,0],"sum_hessian":[1.643406E2,9.5616356E1,6.872425E1],"tree_param":{"num_deleted":"0","num_feature":"12","num_nodes":"3","size_leaf_vector":"1"}},{"base_weights":[-8.411256E-2],"categories":[],"categories_nodes":[],"categories_segments":[],"categories_sizes":[],"default_left":[0],"id":91,"left_children":[-1],"loss_changes":[0E0],"parents":[2147483647],"right_children":[-1],"split_conditions":[-2.1323684E-4],"split_indices":[0],"split_type":[0],"sum_hessian":[1.6583461E2],"tree_param":{"num_deleted":"0","num_feature":"12","num_nodes":"1","size_leaf_vector":"1"}},{"base_weights":[4.314407E-2,-4.1673803E-3,2.58155E-3],"categories":[],"categories_nodes":[],"categories_segments":[],"categories_sizes":[],"default_left":[0,0,0],"id":92,"left_children":[1,-1,-1],"loss_changes":[2.6503064E2,0E0,0E0],"parents":[2147483647,0,0],"right_children":[2,-1,-1],"split_conditions":[2.3436446E-1,-4.1673803E-3,2.58155E-3],"split_indices":[2,0,0],"split_type":[0,0,0],"sum_hessian":[1.6110359E2,5.9013218E1,1.0209038E2],"tree_param":{"num_deleted":"0","num_feature":"12","num_nodes":"3","size_leaf_vector":"1"}},{"base_weights":[2.225733E-2,-3.8604408E-3,1.1640526E0,7.6273235E-4,4.123666E-3],"categories":[],"categories_nodes":[],"categories_segments":[],"categories_sizes":[],"default_left":[0,0,0,0,0],"id":93,"left_children":[1,-1,3,-1,-1],"loss_changes":[2.7805475E2,0E0,3.6188324E1,0E0,0E0],"parents":[2147483647,0,0,2,2],"right_children":[2,-1,4,-1,-1],"split_conditions":[2.8123736E-1,-3.8604408E-3,4.6872893E-1,7.6273235E-4,4.123666E-3],"split_indices":[2,0,2,0,0],"split_type":[0,0,0,0,0],"sum_hessian":[1.5761758E2,6.698125E1,9.063634E1,3.1623117E1,5.9013218E1],"tree_param":{"num_deleted":"0","num_feature":"12","num_nodes":"5","size_leaf_vector":"1"}},{"base_weights":[-4.121862E-2,-4.1031074E-3,1.1338302E0,-1.02405036E-4,3.6481724E-3],"categories":[],"categories_nodes":[],"categories_segments":[],"categories_sizes":[],"default_left":[0,0,0,0,0],"id":94,"left_children":[1,-1,3,-1,-1],"loss_changes":[2.8104907E2,0E0,3.11445E1,0E0,0E0],"parents":[2147483647,0,0,2,2],"right_children":[2,-1,4,-1,-1],"split_conditions":[2.8123736E-1,-4.1031074E-3,4.2185605E-1,-1.02405036E-4,3.6481724E-3],"split_indices":[2,0,2,0,0],"split_type":[0,0,0,0,0],"sum_hessian":[1.5164156E2,6.474024E1,8.690132E1,1.7928066E1,6.897326E1],"tree_param":{"num_deleted":"0","num_feature":"12","num_nodes":"5","size_leaf_vector":"1"}},{"base_weights":[9.783927E-2,7.3265684E-5,6.5847665E-1,-2.8108703E-3,4.4427845E-3],"categories":[],"categories_nodes":[],"categories_segments":[],"categories_sizes":[],"default_left":[0,0,0,0,0],"id":95,"left_children":[1,-1,3,-1,-1],"loss_changes":[5.9764147E0,0E0,3.2736046E1,0E0,0E0],"parents":[2147483647,0,0,2,2],"right_children":[2,-1,4,-1,-1],"split_conditions":[1E0,7.3265684E-5,2.8123736E-1,-2.8108703E-3,4.4427845E-3],"split_indices":[3,0,2,0,0],"split_type":[0,0,0,0,0],"sum_hessian":[1.5462958E2,1.3769751E2,1.6932062E1,6.474024E0,1.0458038E1],"tree_param":{"num_deleted":"0","num_feature":"12","num_nodes":"5","size_leaf_vector":"1"}},{"base_weights":[2.0927355E-2],"categories":[],"categories_nodes":[],"categories_segments":[],"categories_sizes":[],"default_left":[0],"id":96,"left_children":[-1],"loss_changes":[0E0],"parents":[2147483647],"right_children":[-1],"split_conditions":[5.3053704E-5],"split_indices":[0],"split_type":[0],"sum_hessian":[1.603566E2],"tree_param":{"num_deleted":"0","num_feature":"12","num_nodes":"1","size_leaf_vector":"1"}},{"base_weights":[1.3020615E-1,-1.5876734E0,2.7385703E-3,-4.768803E-3,-2.3374632E-3],"categories":[],"categories_nodes":[],"categories_segments":[],"categories_sizes":[],"default_left":[0,0,0,0,0],"id":97,"left_children":[1,3,-1,-1,-1],"loss_changes":[2.4992546E2,1.065033E1,0E0,0E0,0E0],"parents":[2147483647,0,0,1,1],"right_children":[2,4,-1,-1,-1],"split_conditions":[2.3436446E-1,1.4061868E-1,2.7385703E-3,-4.768803E-3,-2.3374632E-3],"split_indices":[2,2,0,0,0],"split_type":[0,0,0,0,0],"sum_hessian":[1.5313557E2,5.45312E1,9.860436E1,3.784814E1,1.6683062E1],"tree_param":{"num_deleted":"0","num_feature":"12","num_nodes":"5","size_leaf_vector":"1"}},{"base_weights":[-8.1607476E-2,-3.8521653E-3,1.1503145E0,1.4464839E-3,4.2397217E-3],"categories":[],"categories_nodes":[],"categories_segments":[],"categories_sizes":[],"default_left":[0,0,0,0,0],"id":98,"left_children":[1,-1,3,-1,-1],"loss_changes":[2.9728537E2,0E0,2.735704E1,0E0,0E0],"parents":[2147483647,0,0,2,2],"right_children":[2,-1,4,-1,-1],"split_conditions":[2.8123736E-1,-3.8521653E-3,5.624747E-1,1.4464839E-3,4.2397217E-3],"split_indices":[2,0,2,0,0],"split_type":[0,0,0,0,0],"sum_hessian":[1.6782661E2,7.7439285E1,9.038734E1,4.282816E1,4.7559177E1],"tree_param":{"num_deleted":"0","num_feature":"12","num_nodes":"5","size_leaf_vector":"1"}},{"base_weights":[1.1161265E-1,-3.3392468E-3,1.2609494E0,6.689002E-4,4.005568E-3],"categories":[],"categories_nodes":[],"categories_segments":[],"categories_sizes":[],"default_left":[0,0,0,0,0],"id":99,"left_children":[1,-1,3,-1,-1],"loss_changes":[2.678309E2,0E0,2.8756271E1,0E0,0E0],"parents":[2147483647,0,0,2,2],"right_children":[2,-1,4,-1,-1],"split_conditions":[2.8123736E-1,-3.3392468E-3,4.2185605E-1,6.689002E-4,4.005568E-3],"split_indices":[2,0,2,0,0],"split_type":[0,0,0,0,0],"sum_hessian":[1.630956E2,7.270827E1,9.038734E1,2.191208E1,6.847525E1],"tree_param":{"num_deleted":"0","num_feature":"12","num_nodes":"5","size_leaf_vector":"1"}}]},"name":"gbtree"},"learner_model_param":{"base_score":"4.6839157E-1","boost_from_average":"1","num_class":"0","num_feature":"12","num_target":"1"},"objective":{"name":"reg:logistic","reg_loss_param":{"scale_pos_weight":"1"}}},"version":[2,1,1]}